610 128
413 -0.14253716 0.54451406 -0.23866785 -0.21701501 0.28875908 0.15749209 -0.25627548 0.010802086 -0.35316938 -0.11085515 0.19476716 0.4015573 -0.16980422 -0.11351087 0.11790204 -0.3151761 -0.124707915 0.10599536 0.35514882 0.1637284 -0.1558089 -0.1575006 -0.13418777 0.1327621 -0.22301207 -0.46477476 -0.38987917 0.22701974 0.0219094 0.15056767 0.41789076 -0.02309252 0.11126016 0.0023293642 0.1596145 -0.04860512 0.15583839 0.18072014 -0.20099512 -0.0329861 -0.61249024 0.5263383 0.3310536 0.18502118 0.49940884 -0.25922894 0.5299408 -0.27901924 0.26740378 0.15429199 -0.1160818 -0.33429897 0.1609433 0.3194218 -0.26716307 -0.06824392 -0.07706169 -0.2978313 0.30908495 -0.34903803 -0.16889478 0.39374274 -0.33931226 -0.09086452 -0.05700492 -0.061745547 -0.12897998 0.056758113 -0.13677385 -0.24306127 0.134707 -0.0031221271 -0.2436922 0.024496801 -0.14625318 0.3368897 -0.036698643 0.4254495 0.5023685 -0.02098319 0.40018168 0.008120665 0.09779546 0.01712743 -0.16828188 -0.24573696 -0.30057102 -0.1996172 0.06739219 0.012384155 0.24497631 0.21655767 0.16504164 -0.24476564 -0.008666293 0.107960805 -0.18341582 0.3511211 -0.07240506 -0.35745248 -0.00016863157 -0.20719673 -0.013957419 -0.030105611 -0.56453276 0.21471596 -0.19653162 0.3946893 -0.15387003 -0.15320763 0.14662775 0.53167784 -0.12973377 -0.012093287 0.04467635 -0.336985 0.08351997 0.36639795 0.45482668 0.23684369 -0.12691292 0.1286098 -0.19256355 0.08120434 -0.062312867 0.11387923 0.27549464 -0.20955303
598 -0.120869614 -0.062494718 -0.41076377 0.10891808 -0.098447785 0.076119825 0.14402609 0.32541355 -0.17503144 -0.25019136 -0.4022802 -0.08458497 0.46038535 -0.19682805 -0.09411105 -0.2919323 -0.2426037 0.093798906 0.3214505 -0.23764916 0.004050624 0.030311702 -0.045402315 -0.4318377 -0.14198652 0.06577056 -0.16995944 -0.16753013 0.055341467 -0.032848842 0.061635524 0.11435794 -0.27901167 -0.231351 0.14023733 0.14153486 0.17637368 -0.036001552 0.036826126 0.18212125 0.19646297 0.4022609 -0.022555878 0.02345353 -0.108746246 -0.4067216 0.22885361 -0.07711882 -0.09175338 0.25478753 -0.16531543 -0.37686628 0.18919662 0.20535462 -0.05489003 -0.30868843 0.15333544 0.06046666 -0.18959709 -0.11679672 -0.57419336 0.06541136 -0.106693774 -0.066325605 0.01179225 -0.07239662 -0.12962708 0.17953064 -0.4275063 -0.25626117 0.22656739 -0.16039418 -0.1838868 0.052832853 -0.15527569 0.57379556 -0.13440928 -0.18262982 0.078779474 0.051762957 0.0773645 0.32360348 0.23366694 -0.005714808 0.28159 0.023820255 -0.0068111517 -0.537287 0.29429218 0.15485756 0.14085329 -0.16769892 0.30542335 0.35478675 0.056885876 0.20147441 -0.06867387 0.05756835 -0.32278648 0.0124080805 -0.08008845 -0.18034376 -0.13189949 0.0031812899 0.11358203 0.35432455 0.04684769 0.18742 -0.09402454 -0.2609836 0.012322453 0.35404816 0.09262035 -0.24782719 0.20453496 -0.31464377 0.20386021 -0.02459076 -0.015704326 -0.09254231 0.19866984 -0.0032361886 -0.0035135862 -0.066199064 0.438404 0.40782332 0.06812458 0.06885754
67 -0.19317538 0.07989984 -0.22309124 -0.14537466 -0.039815415 0.17112648 -0.19172542 0.22578572 0.11920819 0.13339978 0.013660176 -0.23185545 -0.21007305 -0.022066573 -0.29370454 -0.26120704 0.2753585 0.18514994 0.018612279 -0.09826338 -0.3135184 -0.24044012 -0.24515828 0.22891492 -0.22660436 -0.18007743 -0.11703226 0.17150953 -0.27075088 -0.18189648 0.30340374 0.02898957 0.052930493 -0.21172632 0.329609 0.040807642 -0.0025212632 0.0063379244 -0.28715268 -0.0886813 -0.45560464 0.1629515 -0.033205677 0.15104194 0.029407734 -0.20043494 0.062033214 -0.01959603 0.6157414 0.08894657 -0.32534832 -0.29569137 0.41178256 0.02803478 -0.12604217 -0.08587737 0.12531768 -0.013883822 0.13386655 0.0927661 -0.3609512 0.38662678 -0.30737805 0.14396459 -0.054793872 -0.045361113 0.17988938 0.27424872 -0.14659916 -0.2616044 -0.07566204 -0.25587654 -0.01840278 0.11159439 -0.2402719 0.008670505 0.046106145 0.14775753 -0.23496427 0.1776374 0.1785433 0.11027206 0.16163288 0.06086181 0.12735389 -0.10041266 0.041479487 -0.08888138 0.15144023 -0.3385088 0.18750466 0.0058831363 -0.055957496 0.48317438 0.3607322 -0.014885469 0.14118448 0.37400693 -0.11209624 -0.2554911 -0.12673397 -0.1419551 -0.08845731 -0.14242336 -0.036667 0.2665812 0.028294342 -0.145793 -0.040888228 0.20765227 0.0076942244 0.13160259 0.20966949 0.12312571 0.5276387 -0.13776256 0.026790496 -0.058687508 0.26837674 -0.092281386 0.35731292 0.41894132 -0.15613216 0.0637456 0.04103772 0.13350597 -0.115383714 -0.03202403
473 0.18702123 0.30379054 0.0612446 0.123048864 0.09478217 -0.14300284 0.23125589 0.13644965 -0.01674299 -0.20099673 0.3284062 -0.40224284 -0.05970295 -0.6197022 -0.47320142 -0.24303244 -0.06723879 -0.029684251 0.22898741 0.36632523 -0.19795534 -0.37418768 -0.07925019 0.18211372 -0.2759704 0.07093677 -0.43344265 0.26986316 -0.39339274 0.18738584 0.3104786 -0.3421421 -0.30449343 -0.22705159 -0.1660959 0.10413189 0.1849589 0.13345487 -0.32230496 -0.06587762 -0.0058116177 -0.19812381 0.14756584 0.037215196 0.24860936 -0.44254243 0.4580142 0.13368866 0.6567638 0.21858811 -0.30442396 0.24565378 -0.15272802 0.7210271 0.332388 0.4089195 -0.1865823 0.09622849 -0.016446138 -0.3583722 0.068366714 -0.12871628 -0.22203673 -0.08743372 0.28527462 0.12843268 -0.0037796875 0.12675402 0.09207367 -0.052703153 -0.04937747 -0.19039702 0.18208043 -0.14138307 -0.37072784 0.3818108 0.025805302 -0.26265234 -0.28248587 -0.51131564 -0.05734086 0.10439197 0.10054234 0.049208652 0.14624086 -0.49325767 0.4184798 -0.019235983 0.1756915 0.092616156 0.3368754 -0.19864781 0.064560585 0.010133117 -0.12858208 -0.14217311 -0.27533475 0.18846434 -0.15728842 0.08976566 -0.13763942 -0.027983023 -0.17958304 -0.013363952 0.30637664 -0.17018066 -0.16102889 0.42146987 0.37377217 0.5569491 0.07236401 0.30044457 0.36365175 0.3119318 0.22206457 -0.3064431 0.04364677 0.20890269 0.15397106 -0.0654358 0.012577666 0.26323137 0.11050584 -0.04147834 0.07670723 -0.19305383 0.13361263 0.08569946
273 -0.67041975 0.2658448 0.07336465 -0.091165654 0.0956922 0.054048967 -0.14772604 0.07932796 0.04063396 -0.2744988 -0.23532966 -0.07018885 0.025559645 -0.18635972 0.1348329 -0.51136184 0.26044422 0.035689007 0.28058618 0.020025723 -0.007594984 -0.14191572 -0.26013637 -0.05427168 -0.4897037 0.40403485 -0.3298834 0.43979594 -0.25038582 -0.028898615 0.20819217 0.122500695 -0.04994973 -0.11137639 0.24819829 0.2671956 0.22162941 -0.030496024 0.07540017 -0.1396396 -0.38712296 0.53031695 0.36320227 0.11337821 0.015246374 -0.111860186 0.6045344 0.41753092 0.26452282 0.25637096 0.23519754 0.09478154 -0.07445047 0.22531672 -0.23172267 0.09264938 0.02070904 -0.20545259 0.20611547 0.19337389 -0.1886602 0.283362 -0.08193863 0.026167301 -0.048224296 -0.121090695 -0.20669696 0.17621255 -0.22297406 -0.3467719 0.038298286 0.08487583 -0.21729179 0.28576276 -0.12696692 -0.11221731 0.066654 0.0942714 0.33092964 0.3218986 0.5589428 0.1564529 0.055989463 -0.077944435 0.08171492 -0.16540548 0.026988506 0.3159786 -0.18433103 -0.10424326 0.11185176 0.040428117 -0.19208007 0.22632198 0.026917648 0.05578212 -0.078634575 0.05875565 0.028759772 0.13176112 0.13042372 -0.047926962 0.13158257 -0.21362135 -0.024654195 0.46603367 -0.15497725 -0.19222976 -0.1612079 0.032420404 0.23033717 0.57005435 0.35046485 -0.08179395 -0.066966236 -0.5457821 0.14506209 0.26021966 -0.24007346 -0.0034957489 0.50773996 0.3108562 -0.41662955 0.33352482 0.13192028 0.35580543 0.025557024 -0.28539392
447 -0.13019751 0.2685878 -0.06297967 -0.1556784 -0.1912946 -0.22396928 0.34569678 0.14919366 -0.039147884 -0.00019260327 0.12880035 -0.1403592 0.09513544 -0.297414 -0.034849428 -0.133531 -0.28886116 -0.015479796 0.5428658 -0.23765433 -0.15046085 -0.20540057 -0.28454122 -0.029343996 -0.26886088 0.42349848 0.15912709 0.03926768 -0.30282065 0.12708063 0.031230278 0.1058729 0.03437655 -0.02220419 0.4935619 0.021848775 0.024352666 -0.046792008 -0.27922836 0.38390875 -0.14059292 0.36238468 0.024229575 0.27302003 0.08321813 -0.4067926 0.18851063 -0.3613841 0.20024519 0.19025518 -0.19946598 -0.6449875 -0.1156828 -0.10468764 0.069432475 -0.0130259525 0.05052291 0.0065209223 -0.086040534 -0.22407912 -0.27694416 0.2617156 -0.23842357 0.24743877 0.3858435 0.046867747 0.17750522 0.14317927 -0.3883404 -0.14301156 0.2009941 -0.33402804 -0.1735738 0.072382 0.043768138 0.32868615 0.093128376 0.10856613 -0.01253303 -0.23423742 -0.021155773 0.042882513 0.027710745 -0.11968563 0.32320675 0.2902006 -0.008464911 -0.4463451 0.44917274 0.10411366 0.013421676 0.08954975 0.012646265 0.24134412 0.06889913 -0.18515038 0.118519954 0.089136414 -0.09146376 -0.005686979 -0.16619894 -0.10438812 0.016793529 -0.30333725 0.19810209 0.4992418 0.11093467 0.111405365 -0.12170901 -0.045362413 -0.1844564 -0.014406304 0.0032819367 -0.110400185 0.009760167 -0.40142003 0.3649241 -0.029951602 -0.04307445 -0.17262714 0.1468425 0.24617793 -0.13621189 0.10243405 0.39524367 0.03031249 -0.01565208 -0.082958855
379 -0.35166404 0.34590375 -0.7597947 0.16696477 -0.011107519 0.31020945 0.10176493 0.22214365 -0.08846548 0.19032983 -0.07068408 0.27013788 0.0036212988 0.015571086 0.24633388 -0.29489163 0.35702214 -0.18948126 0.14835759 0.15028661 -0.21333958 0.35615206 -0.1642813 -0.10116508 -0.522977 -0.1626427 -0.09428226 0.19910417 -0.013309258 -0.34941593 0.11800359 -0.0026611967 -0.05784905 -0.06966261 -0.09876455 0.20046969 0.03701751 -0.12803164 -0.0787057 0.25657701 -0.3406073 0.15767162 0.33146727 0.43410534 -0.06949332 0.0665307 0.27599597 -0.09507227 0.28709793 0.017001852 -0.21480896 0.024764273 0.3291785 -0.024296451 -0.19289093 -0.011734629 -0.24806556 -0.3097129 0.3255336 -0.056966905 -0.08018779 0.09509542 0.0794246 -0.15087512 0.13363945 0.012882364 -0.32007334 0.278605 0.08972644 0.4709102 -0.04682185 -0.5513518 -0.41460127 0.58523 0.22361526 0.114916235 0.05701347 0.20087604 -0.12116512 -0.069932766 0.23603824 -0.12564692 0.22718918 0.124244496 -0.25498277 -0.19245553 -0.11098726 0.040228684 0.16293405 0.17091817 0.004983388 -0.05390021 -0.17507832 0.09105347 -0.14930141 -0.0722128 -0.14406787 0.49447167 -0.05143722 0.15519352 0.11747817 -0.027155427 0.27672246 -0.03673603 -0.093182504 0.3731842 -0.12607045 -0.28114346 -0.07898098 -0.19788466 0.21790737 0.03159061 -0.015398207 -0.15216346 -0.054765392 -0.24851479 0.31980413 -0.4979347 -0.0122980345 -0.28765082 0.26038042 0.38045436 0.38678432 0.030473659 0.3179156 0.17630568 0.36743268 -0.33620238
479 0.101189874 0.46594152 0.11241577 -0.2338646 0.24373776 0.1490648 0.047642216 0.21569599 -0.069260545 0.39397806 -0.15568951 0.31115565 -0.17199364 -0.08497907 -0.075651824 -0.09210269 -0.028572606 0.2519154 0.29860806 -0.11838737 -0.14108501 0.34389845 -0.10263813 0.048531435 -0.24581835 0.029867036 -0.19779193 0.180139 0.23039332 0.10897458 0.09530844 0.1315582 -0.28314722 -0.32825553 0.2874843 -0.26271462 0.052588057 0.13866901 -0.30385333 0.04589755 -0.2018166 0.23714863 0.18754904 0.020595336 -0.33727396 -0.13525353 0.14465286 -0.07787615 -0.16582611 0.32212827 -0.13505186 0.21662194 -0.16687822 0.27223814 -0.026932769 0.13474213 -0.016157378 0.13533969 0.15802875 -0.33568975 -0.18863204 0.1776019 0.16814245 0.22208185 -0.08146615 -0.14996515 -0.2004032 0.41253698 -0.26915422 0.07290581 0.15640391 0.08115578 0.048127573 0.01605468 0.16848639 0.114798054 -0.24614851 0.2362487 0.06781182 -0.0023960802 0.13988128 -0.038559064 0.27690005 -0.029673072 -0.2502065 -0.305882 0.3803917 0.15235491 0.15852772 -0.5294312 -0.054254375 -0.105903685 -0.056835923 -0.095990874 0.0030708327 -0.013052063 0.14210069 0.09854881 0.14327395 0.06361766 0.12231878 -0.15980916 0.26552236 0.16625048 -0.07346053 0.0819287 -0.08084268 -0.08814017 0.034854073 -0.12490717 -0.009235814 -0.14771697 0.56927043 -0.27408615 0.09933401 -0.10341051 -0.04383159 0.37841207 0.19775753 0.1706486 0.022907935 0.51787853 0.023362326 0.18815283 -0.17186458 -0.12738514 0.12037395 -0.03279053
248 0.069700785 -0.08513428 -0.8102195 0.1285708 0.32558367 0.116188 0.11615719 -0.12043218 -0.16483961 0.22370131 0.161448 0.2428021 0.26857004 -0.12527965 0.13409531 -0.61782444 0.4240082 -0.29443353 0.04774327 -0.3982084 -0.09655342 0.3776406 -0.09889622 -0.4146411 -0.29406783 -0.14173721 0.027159974 0.009233271 -0.37045038 -0.451506 0.24645385 0.3176087 -0.20616369 0.03709352 0.070628785 -0.085423276 0.09888861 0.06738932 0.059442528 0.38950455 -0.41284168 0.078435846 0.40385398 0.3515501 0.255244 -0.19248639 0.03451079 0.33916408 0.5856559 0.1557773 -0.13574967 -0.054938417 0.13417515 0.15435193 -0.34934622 -0.27644482 -0.01920376 -0.15230656 -0.044698052 -0.2334504 -0.52790946 0.056396674 -0.043604806 -0.03430217 0.31556785 -0.6874406 -0.22063026 0.4471431 -0.13784933 -0.42759073 0.04415605 -0.3772642 -0.22793716 0.41178706 0.2129609 -0.07782851 0.17083858 0.1091192 0.29652065 0.017011182 -0.18783185 0.26472604 0.083125435 0.4223941 0.1460022 0.37403667 -0.0907303 -0.13830458 0.22706586 -0.13180505 0.26114738 -0.21132016 -0.14647228 -0.026627986 -0.48449776 -0.04141567 0.16698368 0.5928227 -0.011072286 -0.08760301 -0.26527315 0.2990053 -0.016109677 -0.17482412 0.1857843 0.046559583 -0.013383108 -0.23470959 -0.03146386 -0.019870557 0.124796055 0.2484672 0.31078416 0.11735398 0.6474436 -0.12861934 0.3753625 0.08819181 -0.45277387 0.13296823 0.1676482 0.277094 0.13507125 0.25890154 -0.11183325 0.6011128 0.056552976 -0.35575578
589 0.004439002 0.22034422 -0.35293168 -0.04288055 -0.14264777 -0.12768568 -0.0050737374 -0.20103133 0.07571913 -0.21253856 0.39615035 -0.14751376 -0.31267917 0.015328989 -0.1609881 -0.26102176 0.16194424 0.033334274 -0.011876016 0.31161785 -0.32235143 -0.28897145 0.12520596 0.32623342 0.05387757 -0.17387776 0.031675667 0.043837696 0.08191305 -0.09577287 0.35829237 0.028499521 0.013782732 -0.074540205 0.013664736 0.1750978 0.115969524 0.113611594 -0.0012981427 0.27107123 -0.11933568 0.3254362 0.1701526 0.32510933 0.1110381 -0.22712123 0.3180443 -0.19798979 0.22915114 0.20915647 -0.28778002 0.15040356 0.056791287 0.33375624 0.06877406 -0.35707116 -0.03347963 -0.09376237 0.47687212 -0.08276992 -0.02679007 -0.026615629 -0.14320955 -0.11801402 0.10318131 0.09966224 0.16402304 0.09910128 -0.15953419 -0.33142447 0.052538678 0.1273747 -0.35295632 -0.27851966 -0.35221553 0.055866092 0.2306225 -0.059240025 0.043524858 -0.12253213 0.054967824 0.2430191 0.32806376 0.30696335 -0.47823718 -0.44300374 -0.014744497 0.22221431 0.30585083 -0.06643227 0.25759444 -0.033829343 0.34506163 0.086470336 -0.0019411854 0.17211424 -0.106116764 0.016407121 -0.06722164 0.16374648 0.17363521 0.022185815 -0.051568545 0.101665236 0.071218 0.059715383 0.023838097 0.10805866 6.49296e-06 0.046365786 -0.026702804 0.32887092 0.04567092 -0.17927943 -0.06828703 -0.29111964 -0.10189292 0.095549814 -0.0338311 0.14024907 0.024612498 0.4722796 0.092765726 -0.24356537 -0.12363955 -0.19979455 0.11610076 -0.227735
287 -0.2415487 0.135073 -0.07455962 -0.013232718 0.1910924 0.32490113 0.09080092 0.35769302 -0.26764822 -0.35695148 0.12259429 0.11497335 -0.19173305 -0.20484485 0.013194232 -0.35117623 0.12909622 -0.26949283 0.23917693 0.21223125 0.06569239 0.3729025 0.048340492 -0.008747653 -0.13231209 0.23962907 -0.41914526 -0.15819944 0.3462658 0.0025963273 0.026472023 -0.48091483 -0.295876 -0.03062458 -0.07915615 -0.12439181 0.18083148 0.06603602 -0.44787475 0.3166787 0.3146683 0.18611723 -0.08264808 0.37386638 -0.015010784 -0.004235071 0.3728391 -0.32538202 -0.17355137 0.09170481 -0.22186805 -0.060193505 -0.18158527 0.2578344 0.31285715 0.004468234 -0.21536028 0.11891493 -0.51882434 0.0529916 -0.16662446 -0.2019357 -0.18926544 -0.40075296 0.048453435 0.31787655 -0.3095975 0.10592913 -0.07469547 0.13302197 -0.067661986 -0.30742306 -0.08639826 0.15338685 0.12131259 0.51411164 -0.017869318 0.20757684 0.15204124 0.13121812 0.15417595 0.15640934 0.041338585 0.113502495 0.35434118 -0.46808502 0.09875638 -0.17934786 0.23903172 0.102424175 0.19384894 0.13584028 0.10296476 0.0058250614 -0.17462718 0.021860203 -0.1748002 0.033765424 -0.116456985 0.039735667 -0.052115027 0.16343233 0.052407417 0.052984048 0.17033198 -0.2569924 -0.36628497 0.017819561 -0.06787499 0.2545729 0.18961905 0.45109665 0.24585159 0.23388347 -0.072153494 -0.07342261 0.28518742 0.28937346 -0.29205 0.0018435075 0.027208913 0.38729507 0.10174987 -0.041429903 0.19088833 0.04453619 0.32402384 0.25058654
609 -0.34327754 0.36212552 -0.43212673 0.17279245 0.08869011 0.2878424 0.27922294 -0.30583826 -0.3049153 -0.24846685 0.04031695 0.20252027 -0.13304816 -0.06249668 0.013072168 0.05222547 0.027837934 0.16320431 0.56462115 -0.050511003 -0.11741551 0.4152533 0.06861125 -0.3542477 -0.4676562 -0.24786852 -0.30615926 0.0759014 -0.18590562 0.061248135 0.75938857 0.07058468 -0.13088387 -0.067976296 -0.1267884 -0.1489471 0.061419938 0.107013814 -0.28843844 0.047731824 -0.50412905 0.20686033 0.3078362 0.5258687 0.08700343 -0.42441037 0.06882752 -0.008236708 0.48207843 -0.04212575 -0.17868616 -0.010715216 0.10895823 -0.160279 -0.33654654 -0.49255645 -0.36931598 -0.040266167 -0.059403755 0.1455885 -0.55358607 0.15635808 0.23346955 0.25734583 -0.24422628 0.25261673 0.2420021 0.7532807 -0.30962813 -0.5572501 0.17809579 -0.9357371 -0.4236255 0.085967705 0.03181297 0.4088055 0.090264216 0.032834314 0.23737283 -0.1791607 -0.30479798 -0.16975726 0.11749399 0.3962745 -0.033128988 -0.042765044 0.23657481 -0.09299252 -0.48767734 0.3712804 -0.07872252 -0.19524829 0.103103906 0.10684135 -0.3274441 0.100870274 0.12302813 0.4076632 -0.10895469 0.33053732 -0.08431 -0.39273518 0.34319913 -0.108940594 -0.09030203 0.33594114 0.44124177 0.14469159 0.037468743 -0.30433112 -0.045113474 0.17531541 0.26988202 -0.32720748 0.048775062 -0.5572778 0.18624859 0.4062815 0.12020199 -0.18898518 0.16088685 0.4486661 -0.08321494 -0.069590695 -0.070703596 0.68567866 -0.08671441 -0.58845574
607 -0.2372895 0.22341134 -0.123439156 -0.33598304 0.02086589 0.37846547 -0.071951546 0.109093025 0.27851415 0.2211534 0.15702777 0.007429431 -0.18644615 0.1443564 -0.43822917 0.27028474 -0.1003353 0.0793711 0.18109111 0.22317743 -0.3721868 -0.20411916 -0.05365173 -0.03236984 -0.33702955 0.11601387 -0.15657051 0.18993388 -0.1855772 0.13859002 0.35973296 0.2896535 -0.09695811 -0.08867371 0.46772698 0.0045847637 0.07567194 -0.1523644 -0.18142113 0.045445647 0.1459829 0.3317446 0.105005115 0.099333845 0.2512876 -0.28689808 0.10632801 -0.0044865324 -0.1165317 0.026631197 -0.24146257 -0.058817923 -0.09783273 0.34616026 0.26781616 0.21411715 0.2038728 -0.0023980218 0.14620104 0.07512075 0.19749913 -0.10983918 -0.00379878 0.08086191 0.15472181 -0.02801107 -0.047404 -0.020897701 -0.19295307 0.32696536 0.10923497 0.14991459 -0.18363816 0.31949177 0.17759044 0.24246688 0.11133825 -0.02127907 0.07025097 -0.19750574 0.0934433 -0.070095815 -0.08013989 -0.26501372 0.14310053 -0.19577667 0.0002294671 -0.3234898 0.4204097 -0.36693963 0.1482082 0.16641627 -0.25905013 -0.035274778 0.12511146 -0.13651268 0.1846961 0.07247924 -0.19553415 -0.11203988 0.020729234 0.0657185 -0.08386384 0.11541785 0.1604993 0.20893587 -0.35060063 0.14830253 -0.18649891 0.013064359 -0.074026294 -0.1845727 0.1826257 -0.100953095 0.41398406 -0.13539284 0.25372088 -0.23760292 0.14970914 -0.17378469 0.08593337 0.08030565 -0.1117967 -0.04294568 -0.085411794 0.04312555 0.2706996 -0.16382405
482 0.36878738 0.26551622 -0.34204066 0.12067694 -0.26368648 0.25088662 0.28582242 0.048114736 0.07905637 0.21268155 0.08628659 0.027170336 -0.23308198 0.22911412 -0.17275663 -0.027776236 0.24246344 -0.19641188 0.16329129 -0.28235397 -0.22510718 -0.09064661 -0.60916454 -0.20998451 0.06388438 -0.059746977 0.034632817 0.20421965 0.026989955 -0.012967117 0.10435411 -0.18879372 -0.35512605 -0.10527453 0.18383788 0.20718932 0.08339719 -0.1053246 0.26323885 -0.08382965 0.09674617 0.0050143725 -0.0128957685 0.04798567 -0.18851453 -0.42311272 0.013917761 -0.029837076 0.2196656 0.12748541 0.13730475 -0.04976337 -0.010332963 0.030725565 -0.16785993 -0.2851774 -0.13379222 -0.26352003 -0.13488823 0.24977218 -0.16404608 0.48317426 0.06700052 0.42219082 0.020756412 -0.21801391 0.028936507 0.11269037 -0.022292577 0.14846577 0.008966918 -0.3259343 -0.39128357 0.18774758 0.07744041 0.13640632 -0.054054458 0.20949239 0.16632746 -0.014954644 0.20210359 -0.39518237 0.08058419 0.14694141 0.21553186 0.029235737 -0.14747463 -0.06129912 0.117089614 -0.22001591 0.33454192 -0.49469066 0.013269606 0.01860417 0.008424413 0.12979278 -0.33867234 0.43265125 -0.114773005 -0.15918213 0.050646663 -0.06872038 0.22750993 -0.49006012 0.22672053 -0.021830207 0.10053288 0.2164546 -0.40031752 0.256965 0.06923025 0.055271853 0.12925859 -0.0058988323 0.32610682 0.11296005 0.3472284 -0.34156522 0.123537876 -0.05009377 -0.0018754096 0.44340107 0.15165333 -0.085492484 -0.21680605 0.4167569 0.13594744 -0.048483543
176 0.027403055 -0.050429534 -0.3815933 0.118312486 0.09393806 -0.3809116 0.019160733 -0.18354918 -0.22660974 0.049493484 0.17131951 0.43162453 -0.19105369 0.013897888 -0.44729814 0.19402325 -0.07063611 -0.24168092 0.57563573 0.2033225 -0.14240363 0.1559796 0.019416308 -0.14265151 -0.10488454 -0.22750841 0.101855874 0.3245271 -0.06796421 0.1734171 0.071222804 0.19458613 -0.20495623 0.24423787 0.034975007 0.4497164 0.23345447 -0.019615721 0.1466885 0.02987506 -0.05190399 -0.11289184 0.32904917 -0.088438086 -0.18968415 -0.4038203 -0.049747404 -0.16713022 0.20943522 -0.06013927 -0.206809 -0.4734214 0.13052881 0.23920894 -0.10183602 0.21612763 0.16326346 -0.16183393 0.12477173 0.04621837 -0.30469546 0.35148096 -0.04950977 0.08414726 0.12369284 -0.41532475 0.141495 0.10312484 -0.15848422 0.07170096 0.0084871715 0.054908216 -0.048588842 -0.20585364 0.10676604 0.1171069 0.09096469 -0.0036732203 0.59777474 0.16220053 0.4282105 0.33724737 -0.13893405 0.35081443 0.18004358 0.054948155 0.12450358 -0.34001246 0.00664654 -0.0133917425 0.06550833 -0.12487509 0.44340277 0.23029609 -0.0029592796 0.28575572 0.08432236 0.39859343 -0.15874353 -0.35998818 -0.4451304 -0.16608831 0.092823915 -0.31581953 -0.26261395 0.24548371 0.087118685 0.115756266 -0.036062717 0.19791794 0.25840977 0.24631657 0.16145314 0.09500704 -0.037241887 -0.07181131 0.36907884 0.10471229 -0.37889484 0.07839819 0.0210833 0.22244179 -0.07077121 -0.06205376 0.6061396 0.3483891 0.42092666 -0.48468858
181 -0.17010027 0.29834992 0.06695496 -0.29871237 0.12812844 -0.039378684 0.15265127 -0.09659329 0.01152259 -0.35651293 -0.24788468 -0.19983359 0.23985128 -0.01987006 -0.5814296 -0.079189986 0.048001304 -0.019593233 0.07505748 0.11836431 -0.006208819 -0.26926422 -0.020870822 -0.13042282 -0.10603665 0.09835577 -0.3493059 0.21700592 0.04729158 0.04354183 0.41686496 -0.3827498 -0.084445454 -0.24487352 0.4895662 0.3420635 0.053467687 0.22918907 -0.057810232 -0.071688764 0.14431426 0.13262656 0.036256872 -0.01150684 0.09471713 -0.17386611 0.19182014 0.080251984 -0.057244603 0.36201173 -0.16670945 0.15517527 0.0044509633 0.13902055 0.35418662 0.14000499 0.10737024 -0.21204567 0.10048635 -0.07546133 0.01195737 0.056814 0.006755439 0.0669847 0.11319401 0.08936643 0.16208088 0.29002306 -0.06837948 -0.08179084 0.3329218 -0.068878025 0.065377206 0.22513887 -0.48826742 0.15327084 0.019830788 -0.25031352 0.20770898 -0.11203243 0.14661911 0.15790604 0.003308193 -0.23811825 0.12848474 0.02402283 0.014899879 -0.06726766 -0.10046149 -0.27799016 0.1483105 0.07209447 -0.22987598 -0.62798005 0.1552923 0.013310458 0.010591926 -0.01007672 0.090850614 0.541844 0.077328704 0.11609983 -0.46175003 -0.157529 0.0009906546 0.18163987 -0.01629508 0.18696256 0.18586844 0.51861876 0.47453585 0.33527663 0.28964853 -0.11652012 0.22840923 -0.22087173 -0.29408965 -0.17610128 0.38516352 0.012363482 0.08636629 0.4025272 -0.3962311 0.081573434 -0.40503198 -0.21969458 0.4254753 -0.1846987
605 -0.05382028 0.36467257 0.10479108 -0.17848131 -0.053259626 -0.08965716 0.1034302 -0.087235756 -0.18395668 -0.25950053 -0.1320016 0.17528346 -0.21583986 0.1485465 -0.0007686628 -0.053163137 -0.14182664 0.004093187 0.07983434 0.32905477 -0.44068098 0.39189318 0.12584864 -0.03953025 -0.008759594 -0.34731376 -0.35897255 -0.28516558 0.056560602 0.053020634 0.23983279 -0.55070615 -0.038346883 -0.4597899 -0.3350692 0.056947596 -0.13394062 0.24080409 0.037586547 0.16978845 0.39099768 0.1810524 0.08703402 0.1663524 0.3841688 -0.18093354 0.34228057 0.036098294 -0.15351878 0.4458415 -0.22642274 -0.1005291 -0.26420277 -0.05174927 0.18671738 -0.003899191 -0.008988356 0.15015921 0.024489917 -0.018730197 -0.21928976 -0.19914147 -0.0010412144 -0.026993107 -0.41176865 0.071706094 0.018032262 -0.13881361 -0.23773907 0.20911697 -0.16441542 -0.15414844 -0.45894253 -0.015685668 -0.13460416 0.38150758 0.08635828 -0.136404 0.20819038 -0.29884478 0.41803384 -0.3588287 0.13028218 0.100132726 -0.23714638 -0.27331957 -0.48906374 -0.29616258 -0.08654348 0.33531028 0.71903086 -0.2755255 0.12847804 -0.031505037 -0.10428661 0.29508665 -0.25797117 0.10514347 -0.16401225 0.40357083 -0.30347338 -0.011800458 -0.17945139 0.09341569 0.09819785 0.01460322 0.14884043 0.28689647 0.17492534 0.337142 0.06735639 0.4882878 -0.17055516 -0.031425554 0.020118052 0.033153627 -0.2262611 -0.17586374 -0.2972237 -0.015940204 0.075489044 0.33331224 -0.267924 -0.32185632 -0.277868 0.13417673 0.3941447 -0.016998716
306 -0.7238789 0.22900493 0.075607024 -0.105994806 0.04495495 0.3431945 0.066388406 0.3433564 -0.073507294 0.30644268 -0.05401023 0.5011644 -0.16254817 -0.045902897 -0.20819043 -0.30512905 -0.0817604 -0.1951701 -0.16210377 0.26206788 -0.3146658 -0.1874968 -0.13195112 -0.039906837 -0.38483545 -0.10103707 -0.3400475 0.047288917 -0.036945917 -0.20563254 0.25131342 -0.047249984 -0.3270976 0.21383086 0.23934206 -0.067924716 0.040257677 0.44656247 -0.16101462 -0.0114141535 0.14528497 0.2543329 0.2795321 -0.14268112 0.10422443 0.023964608 -0.08363287 -0.100561604 0.22292742 -0.047034506 -0.0018430562 -0.12752001 0.12397104 -0.010766674 0.2306571 0.35366067 -0.30055478 -0.12624714 -0.23813955 -0.013715224 -0.1817818 0.19048673 0.13262038 0.031923305 -0.062793635 0.22698207 -0.0043122326 -0.01206262 -0.17289905 0.16786633 0.05476432 -0.264302 0.12611026 0.30987078 -0.054776806 0.2519385 -0.13745013 -0.080569245 0.5303022 -0.027820103 0.2946173 -0.36231622 -0.069024816 -0.20077102 0.05246532 -0.23665874 0.3383047 0.28385854 -0.1513098 -0.066914074 0.09844008 0.2009883 0.06482143 0.07711027 -0.089070454 0.05486821 0.16013983 0.0016503064 -0.1799337 -0.14799748 0.09718146 0.30987784 0.2778881 0.28168672 0.08636488 0.068895854 -0.0065605342 -0.08273348 0.09275246 0.059460536 0.11330043 0.058490794 0.20159194 0.03899254 0.14251387 0.10732416 0.22409362 0.1929729 -0.07559766 0.037420724 -0.18028557 0.1619171 -0.13334297 0.11701677 0.54489815 -0.007541312 0.35474068 -0.13432436
386 -0.16873954 0.321143 -0.22368336 -0.02186403 -0.1929007 -0.079158835 0.17753625 0.10622766 -0.14613281 0.008285945 -0.08645044 -0.38769007 -0.088252954 -0.02158865 -0.2098976 -0.19620904 -0.29754186 -0.23243673 0.14567868 0.259873 0.110103466 -0.40824485 -0.62521803 0.17169853 -0.35011566 0.27991888 -0.32931054 0.08039992 0.13965052 0.31229222 0.2649617 -0.5355729 -0.1080189 -0.5445702 0.11756702 -0.10250752 0.09954446 0.24557482 -0.044623613 0.20774214 0.26293132 -0.061860435 0.24925067 0.07332347 0.4065167 -0.05686949 0.5140282 -0.32580763 -0.08525408 -0.1019638 -0.13810751 0.14723662 0.17903405 0.18377464 0.14010736 -0.02369836 0.43203968 -0.46706194 -0.01846948 -0.08733317 -0.13586478 0.23798144 0.20972425 -0.015094188 0.14906529 0.003857535 0.08245825 -0.24029322 -0.59404117 0.44733056 -0.15179965 -0.61474764 0.41873616 0.24813583 -0.0038818587 0.5463413 0.13763855 -0.10828416 0.29908305 -0.48713285 0.020003607 -0.059362177 -0.04673012 0.15826023 0.3203382 0.27186704 -0.0117087485 -0.31538075 0.23812258 -0.012390702 0.0028823435 -0.045410827 -0.051995058 -0.27786458 -0.33724982 -0.12929927 -0.16005333 0.123331346 -0.0026042813 0.14497879 0.14528763 0.42012525 0.0023320175 -0.015599417 0.040039238 -0.0017193626 -0.009160117 0.16019678 0.114295855 0.2724915 0.049311608 0.6538439 0.2415676 0.09348193 0.07010949 -0.1499432 -0.07106589 -0.2820463 0.26991424 0.28088444 -0.065827824 0.1999669 0.15586582 0.022932518 -0.08925904 0.20065583 0.048641883 -0.038735416
63 -0.120118275 0.33764544 0.12888649 0.10407765 0.13850218 -0.11157345 -0.19739152 0.06953548 0.14896856 -0.13965346 -0.3715643 0.075179614 0.1705871 0.0045503858 -0.25302693 -0.28276056 0.0075722635 -0.3133683 -0.101383045 -0.09087005 0.022621132 -0.10031461 -0.16795169 -0.06585422 -0.17553364 0.38285083 -0.10235596 0.12414862 0.16723648 0.37122542 0.14098123 0.07152221 -0.42197236 -0.21976985 -0.051064014 0.012380942 0.16877426 -0.05084375 -0.26058817 0.119274065 -0.10054051 0.2392281 -0.05641185 -0.193394 0.23585181 -0.14716122 0.3330123 0.08253278 -0.2595984 0.27377617 -0.19970745 -0.18677494 -0.054789852 0.037933387 0.13479072 0.19140354 0.16776407 0.024446158 -0.12369304 0.15948246 0.15212658 0.12572993 -0.01680805 -0.050761722 -0.005624133 -0.10255549 -0.041828748 0.17314105 -0.27603084 0.20110707 0.17688052 0.01363127 0.017654402 -0.023967432 -0.035157856 0.11238204 -0.23324221 -0.20715947 0.14684585 -0.025043089 0.4344359 -0.1512066 0.1268132 0.15519017 0.17390755 -0.04695507 0.015884576 -0.037899196 0.02113316 -0.19125876 0.2662598 -0.01173362 -0.31041816 0.51936334 0.19758707 0.13755114 0.06369313 -0.1920627 -0.047856506 0.16154246 -0.0280709 0.11901374 0.13111022 0.0044320277 0.16494457 0.022243325 -0.055111144 0.1518922 -0.07687276 0.43527076 0.14989698 0.1279844 0.36694023 0.07318493 0.37208533 -0.22657011 -0.22556101 0.2776734 -0.24893859 -0.15413047 -0.043027066 0.035877686 -0.06340325 0.004341743 0.1590753 0.15788445 0.14381915 -0.0010401845
304 -0.04364342 0.31027755 -0.61843467 0.037955552 0.24258016 -0.31732047 0.52852213 -0.3295882 -0.4110837 0.007507199 0.26356316 0.31441513 0.16278116 -0.6099748 0.42160243 -0.28388 0.29983956 -0.048649922 0.34270653 -0.037314847 0.13799658 -0.24222104 0.19439164 -0.43122658 -0.56785035 -0.3388317 0.10397617 0.08269024 -0.22207355 -0.2639841 -0.23429644 0.11142076 0.1040759 -0.1911948 0.1074331 -0.14284132 0.2861733 -0.10586085 -0.19749199 0.2422096 -0.25216308 0.35902175 0.14936885 0.28202733 0.7932015 -0.38990843 0.36258927 -0.0715581 0.32240844 0.16910972 -0.3757352 0.10227524 0.2797245 -0.2776515 -0.6607688 -0.23870918 -0.13267435 -0.12178842 0.22265124 -0.21439542 -0.28833818 0.2580328 -0.054119397 0.10134016 0.21766739 -0.061486814 -0.1499437 0.2576034 -0.044455074 -0.2296044 0.4539838 -0.45630983 -0.28026032 -0.36014715 0.113110974 0.1514978 0.36783275 -0.20446461 0.08236206 0.38022837 -0.06984789 0.10609575 0.13281158 -0.13763496 -0.2669791 0.008580581 -0.24012269 0.38632855 0.07380643 0.28473797 0.37816012 0.12534949 0.23572648 -0.13616179 -0.62196046 0.06439245 -0.085178144 0.18906672 -0.21172726 0.0026144513 -0.11039869 -0.29745075 -0.13035816 0.12516579 -0.38140061 0.1852237 0.16704565 -0.23585244 -0.06102561 -0.057138674 0.13367069 0.10593868 0.2690695 -0.46283033 -0.25957415 -0.1251365 -0.04956038 -0.03056936 -0.25726533 0.27424002 -0.057785187 0.09399464 -0.19678101 0.14150688 0.17469813 0.24545638 0.18346192 0.25854617
90 0.044179108 0.4101056 -0.096727 -0.024087617 -0.033647526 0.16928573 -0.15819128 -0.019777061 -0.14346534 -0.08843605 0.03420576 -0.39739007 -0.10103168 -0.11917076 -0.11360149 0.090227716 -0.059578035 -0.3706786 0.11952983 0.10002261 -0.10515695 0.28694737 -0.11104614 0.20972708 -0.24458045 -0.04439521 0.13859998 0.0891811 0.11803564 0.0060671647 0.055990543 0.060906332 -0.11507821 -0.47829866 0.16171303 -0.062319636 0.082804635 0.037522532 0.050000228 -0.11846202 0.18406202 0.19377215 0.11453756 0.13032682 0.17682502 -0.19318236 0.43347758 -0.10351628 -0.17775771 0.20143874 -0.017903678 0.016553082 -0.31189683 0.16407152 -0.20746514 0.057188094 -0.0006102493 -0.28628325 0.37541565 -0.18437514 0.09772911 -0.16403313 0.10880188 -0.16115934 0.044104088 0.004794432 -0.3768035 0.2403966 0.03980803 0.35593733 -0.11048743 0.12014885 0.2215733 0.3088191 -0.11287508 0.116876826 -0.053527385 0.17622092 0.03869532 -0.2856331 0.14024967 0.09881223 0.40069792 -0.06027292 0.027895048 -0.096786015 -0.20951329 0.2838545 0.1341661 -0.33978036 0.14187184 0.098936275 -0.02679265 0.27324435 -0.09526468 -0.0041549443 -0.21870393 -0.33752936 0.1000229 0.20573811 0.58263725 -0.0076227053 0.055974536 -0.008826843 0.02408292 -0.0711898 -0.081992425 -0.050595548 -0.31325063 -0.101432204 -0.122696616 0.07297011 -0.37078512 -0.17237315 -0.40762758 -0.19250217 -0.31179672 -0.16738965 -0.025075503 -0.0313906 0.16052017 0.065672204 -0.02094314 -0.12712282 0.12862122 -0.17386577 0.2815977 0.0954191
231 -0.0073310253 0.08255161 -0.055874456 0.10876452 0.060599737 0.25249097 0.17571026 0.02628255 -0.17142247 0.39310586 0.33220407 0.2651197 -0.30360496 -0.042100474 0.13450862 -0.32071424 0.07603686 -0.008390126 0.5342946 0.018725486 -0.54158765 0.4917409 -0.29021516 0.10382985 -0.5257502 0.30529293 0.046530064 -0.027873268 -0.056050975 -0.2690835 0.17393899 0.38104942 -0.37314022 0.005365417 0.26835406 -0.26410833 -0.089554645 -0.020066597 -0.40872583 0.16264877 -0.105493575 -0.12342517 0.24701177 0.54867506 -0.5022792 -0.6802982 -0.1454363 0.05231769 0.25127733 0.26113907 -0.29581043 -0.16616012 -0.3136017 0.33604708 -0.22203939 0.36465403 -0.009518725 0.23250012 0.12435609 -0.06106054 0.006551072 0.14327665 -0.24068916 -0.099509805 0.21057579 -0.03366751 -0.27087307 0.044845235 -0.78535825 -0.55904603 -0.4607812 -0.45508295 -0.097784616 0.27644828 0.45246416 0.015690146 -0.2660646 0.5041755 0.097361036 -0.28872633 -0.13067017 0.051832236 -0.038688987 0.3793883 -0.025975537 0.2790345 0.21213473 -0.27245626 0.17844681 -0.16271605 0.21532133 -0.1465075 0.15390342 -0.18840726 -0.2926147 -0.08309896 0.22432278 0.73531157 -0.0719764 -0.34990638 -0.16389143 -0.26587376 0.38914803 -0.031862162 0.086082116 0.04919356 0.581953 0.016964773 -0.14365797 -0.09146741 -0.18380317 -0.046112917 0.21560578 -0.03894217 0.5130572 -0.02736369 0.1669542 0.14729293 -0.05686287 -0.11755135 0.35832167 0.70057505 -0.060938768 0.043086294 0.20861046 0.3398454 0.27529496 -0.18428539
17 -0.29654935 -0.0724524 -0.3624553 -0.06699109 0.48068535 0.2227339 0.115277365 0.078964986 0.12442768 0.061957974 0.22201839 -0.2381298 -0.089400314 -0.1511326 -0.23428398 0.0049745548 0.31177783 0.33408952 0.06018965 -0.13075049 0.33364868 0.377577 0.08071979 -0.38664356 0.044317197 -0.29326838 -0.09822331 -0.08688485 -0.0435994 -0.27991143 0.46699446 -0.09245937 -0.1670723 -0.027762048 0.122681074 0.10940571 0.1784445 0.14142315 0.2737443 0.11099987 0.024574254 -0.13618097 0.043145318 0.08261576 -0.18203735 -0.32632074 -0.14185041 0.17629191 -0.019126227 0.13708244 -0.19310912 -0.021397484 0.10016412 -0.20706554 -0.5693398 -0.08643175 0.050713263 -0.28770444 0.08710874 0.041752767 -0.6366043 0.078857794 0.23735705 0.3344653 0.031361707 -0.15444171 0.089436315 0.22927174 -0.09343647 0.18387109 0.11002839 -0.3551802 -0.26392418 0.07824169 -0.028148416 0.11702304 0.18238404 -0.112209834 0.44564316 0.41541016 0.19048218 -0.21633598 0.03469775 0.063717924 0.3213738 -0.17520542 0.17112039 -0.3203073 -0.03777787 -0.055957425 0.18267089 0.20826703 0.49504632 0.102900065 -0.48752546 -0.06565323 0.22034553 0.3164369 -0.09095966 -0.065978974 -0.031417903 -0.001162074 0.038362008 -0.15805611 0.036914703 0.046528097 0.35285494 -0.0797034 -0.22262028 -0.46266675 0.36995235 -0.022778636 0.10332148 0.033101022 -0.32146794 0.0026062387 0.15539894 -0.28328517 -0.028070882 -0.078979544 0.17434627 0.60144836 0.098867245 0.13715474 -0.12605935 0.34288153 0.07104089 -0.050907027
476 -0.12432016 0.111587726 -0.19884329 0.15834327 -0.15191989 0.055203803 -0.26836404 0.3022627 -0.11294829 0.14223313 0.009395307 -0.14619407 -0.24700561 -0.16695483 0.1588312 -0.46577597 0.38713872 -0.27238563 0.5374352 0.1201456 -0.16381635 -0.12782934 -0.07994285 0.012104169 -0.32920027 0.20991914 0.27756593 0.21938203 -0.012869261 0.20430136 0.025926413 -0.21599185 -0.25640276 0.071543984 0.053664945 0.032117426 0.2974994 -0.034954373 -0.27808043 -0.0199446 0.020035869 0.21781203 -0.29272968 0.31019562 0.22696395 -0.21992141 0.49933356 -0.3350265 0.088085204 -0.041328866 -0.009445592 -0.012764417 0.30106413 0.06395554 -0.09581252 -0.08750448 -0.19519295 0.055393986 0.07294997 -0.02483184 0.07096927 0.33029738 -0.22270617 0.13490047 -0.1151036 0.18467231 0.116306305 0.07253368 -0.4668853 -0.11074152 -0.0060175145 -0.23078278 -0.1524817 0.116214916 0.11939745 -0.08062976 -0.09075523 -0.014293219 0.24860229 -0.04844356 0.07214732 0.04227845 -0.23411903 0.39813235 0.21800853 0.00034719866 0.37800017 0.16776271 0.10251829 -0.18668167 0.1028101 -0.35969788 0.053182032 -0.26278707 -0.10380428 0.21167523 -0.098086916 0.31380603 -0.14086682 0.0043175844 0.29858708 -0.12176833 0.17390086 -0.058957018 0.053999 0.18505229 -0.36371022 -0.074130096 -0.23811613 0.20477603 -0.06450655 0.4558964 0.4166121 0.20331196 -0.05177124 -0.054136183 0.061655696 0.25848794 0.30930236 0.08823183 -0.12307424 0.5281985 0.1054847 0.18762572 0.122174494 -0.2682791 0.2546231 0.103409514
317 -0.24464893 0.10419532 -0.39694217 0.014518739 0.14632596 -0.1459396 0.1314212 0.098464884 -0.060804147 -0.025225546 0.1356311 0.36183122 0.06463225 -0.2390074 -0.21253487 -0.07017035 0.23275608 0.0094650285 0.7855224 -0.076992124 0.3683107 0.28293478 0.26969472 -0.11258363 -0.46188402 -0.23821852 -0.07534971 0.09472234 -0.40755716 0.022925952 -0.26335055 0.024823552 -0.19515228 -0.18444833 0.18420884 -0.2660287 0.2246024 0.0912872 0.027857535 0.6894638 -0.4258825 -0.25771108 -0.09265973 0.15359482 0.1771987 -0.29645875 0.21877255 -0.06923888 0.7749681 0.24453275 -0.35350356 -0.37898812 0.05402022 -0.3618086 -0.11710352 -0.21553954 0.116903715 0.11240414 0.18596989 0.10140624 -0.37760597 0.4277566 0.23263544 0.068089046 0.045596015 -0.25168058 0.27999547 0.2326126 -0.31838545 -0.3161712 -0.037322808 -0.15250981 -0.18221705 0.006597204 -0.005825432 -0.046460386 0.11683525 0.026119014 0.3825779 -0.046278186 0.13065305 0.43768874 -0.24350502 0.017709093 0.09168757 0.086630136 -0.5076934 -0.4189746 0.08135814 0.034739237 0.2626247 -0.19400068 -0.25003803 0.067936815 0.0300859 0.069656335 -0.0074982415 0.5981036 -0.008551208 0.14625885 -0.35463375 0.059696507 0.15175349 -0.11653342 0.036709987 0.45216736 -0.17923024 0.11485114 -0.12522708 -0.0990221 -0.15521295 -0.016181845 0.2277677 -0.102278836 -0.23483759 -0.43830225 0.049928654 -0.10786047 -0.22176793 0.016179318 0.031309463 0.55921686 -0.20097417 0.24259536 -0.31365025 0.4477987 0.3814477 0.15014353
560 -0.008633702 0.30663866 -0.11907205 -0.047647797 0.3554818 0.021672862 0.06640264 0.0712884 -0.28522262 -0.046152774 0.13706371 0.12864365 0.19596963 -0.10270391 0.14116985 -0.1932634 -0.15362388 0.15639238 0.032095075 -0.15556805 0.03854928 0.05378464 0.03594415 -0.03548699 -0.3872191 0.03966586 0.15887153 0.10217808 0.09597534 -0.30810332 0.11795274 0.18612121 -0.07691614 0.08338607 0.26903138 0.084810115 -0.05184294 -0.21408534 -0.18359499 -0.13227545 -0.18098776 0.22681078 0.046810687 0.6360418 -0.010806177 -0.33180356 0.1368752 -0.26440576 0.0038234491 0.23017073 -0.33547556 -0.14617346 0.002679585 -0.110076495 -0.11647352 -0.054565057 -0.12230471 -0.3854772 0.23243818 -0.23405816 -0.020793533 0.07502164 -0.0044597005 -0.18292138 0.02247053 0.20929807 -0.49985754 0.11476374 -0.1373726 -0.15508205 0.120735414 -0.30060488 -0.16421193 0.25636196 0.28578937 0.24155949 0.0817961 0.29584303 0.10702088 0.3114784 0.13905326 -0.11000172 0.17985113 0.19669515 0.23167253 -0.3373342 -0.3458487 0.25845766 0.0031478186 -0.039023522 0.58494383 0.30966073 -0.0722398 0.11089426 -0.20746897 -0.04380048 -0.19362444 0.080714166 -0.3649967 -0.14656982 0.3501893 -0.17375928 0.10961419 -0.063690595 -0.36957404 0.31190103 0.109262034 -0.22534779 -0.1820328 0.17339288 0.021248814 0.12813641 -0.1746165 -0.24471743 -0.43659943 0.18015116 0.05210511 0.21539247 0.13269833 0.06820122 0.2382054 0.2705181 -0.21272512 0.07459868 0.21309888 0.16403118 -0.1809996 0.19592284
488 -0.18702823 0.18698145 -0.0021968489 -0.13546476 0.21679847 0.16841327 -0.00043896373 -0.28056106 -0.13475515 -0.48875067 -0.24621767 0.058968086 0.054318238 -0.37326363 0.041177854 -0.15631224 -0.13046438 0.023224844 -0.031872198 -0.17978956 -0.041650623 0.3145119 0.08952736 0.08598642 -0.009306702 0.16773015 0.060833655 0.006916015 -0.194539 0.008790094 0.2418124 0.058564346 -0.1661607 -0.011864339 0.14061919 -0.36086336 -0.11477502 0.29704136 -0.14995949 -0.005981128 -0.12045687 0.31752875 -0.0030998718 0.010638483 -0.032382425 -0.31030726 0.16257057 -0.08632746 -0.07233791 0.19499566 0.0051623234 -0.063345775 0.07558295 0.34094507 0.15915233 0.25830725 0.16900373 0.23434417 -0.08154193 0.16936743 -0.17591095 0.096324295 -0.096534885 0.082801394 0.09708034 0.27652907 -0.2336882 -0.18146726 -0.21692674 0.26661402 -0.3246283 -0.1381388 -0.27246788 -0.18611988 -0.17251836 0.2375868 -0.27796516 -0.19397104 0.079270005 -0.27352926 0.15009922 -0.1653609 0.34386548 -0.13508178 -0.13811629 -0.1772978 -0.015358172 0.06492991 0.080485374 -0.19612376 0.34757787 -0.03842782 -0.039046515 -0.14166644 -0.104159765 0.08523427 -0.10745839 0.3332952 -0.27519134 0.113428704 0.0058127167 0.074644245 0.06383209 0.10839101 0.20049308 -0.09422809 0.13944505 0.28758973 -0.242517 0.1424047 -0.14551447 -0.020551417 -0.041494466 -0.06895167 0.17349578 0.13979703 0.26740655 0.17212003 -0.16734453 0.17013486 0.15444174 0.2575973 -0.07533972 -0.2931945 -0.21540658 0.26397976 0.1933359 -0.2640918
218 -0.24447311 3.9353727e-05 -0.11017567 -0.035881463 -0.14434275 0.1894175 -0.23426682 0.22706996 -0.12682599 0.082338765 -0.27994362 0.16693696 -0.079723015 0.045785367 0.107325286 -0.32579723 -0.11396533 -0.027709598 0.17191133 0.26815182 -0.25513166 0.33049905 0.01007457 -0.30866972 -0.42932156 -0.19441873 -0.05515276 -0.19907649 -0.04138004 0.021087755 0.12720191 0.2270219 -0.041326586 -0.089102775 0.44734925 -0.24563472 0.05331636 -0.029061835 -0.31565785 0.50177956 0.36959672 0.24199459 0.008925298 0.35085702 0.080827646 -0.2867025 0.29521716 0.22129379 0.020842416 0.035493914 -0.25787917 0.18071967 0.17760436 0.11304954 0.022830324 0.0953234 -0.11127537 -0.2740233 0.15808819 -0.1670156 -0.24693902 0.14687952 0.5496153 -0.06744225 0.24205288 -0.07542754 -0.43105364 0.19596946 -0.38084 -0.3955511 -0.055360507 0.04842855 -0.14815405 0.28688487 0.27659738 -0.18351047 0.34339368 0.39400446 0.3102712 -0.31556624 -0.28743297 0.10775248 -0.07397751 -0.08032697 0.06073338 -0.20421399 -0.09138597 -0.044573367 0.08955076 0.088480644 0.30551052 -0.17085357 -0.044451345 -0.05867429 -0.2190312 0.37104625 0.2519595 0.23466988 0.07934584 0.049417045 0.0019482302 -0.14170064 0.033113398 0.33689588 0.25064373 0.15087436 0.04641184 -0.14165016 0.24729998 -0.06136544 -0.15220644 0.015067505 0.19756961 -0.16411135 -0.08610439 -0.033503 0.092656486 0.12771304 -0.21655218 -0.26743022 -0.37461925 0.26460162 -0.43740204 0.012440751 -0.044459637 -0.25379714 0.3474963 0.34207934
599 -0.16353326 0.124986894 -0.047742262 0.08398035 -0.035672262 0.14051844 -0.26945466 0.22130379 -0.10971455 -0.3380418 -0.28143358 -0.053071927 -0.091893144 -0.03560386 -0.2595049 -0.11578251 0.098638676 0.08301575 -0.11218111 0.18651097 -0.687348 -0.079761654 -0.03410882 -0.25274888 -0.12325886 0.14040741 -0.20215876 0.046925504 -0.23416466 0.2890487 -0.29297847 -0.55533165 -0.12872812 0.14099213 0.053319868 -0.01060073 -0.029311424 0.2075633 0.10379279 0.116071515 0.21387944 0.00096454227 -0.16731882 -0.015931766 -0.35416117 -0.23317346 0.49107063 -0.20368119 0.43670505 0.10769745 -0.079855666 -0.23734379 -0.06863273 0.09326773 0.26436678 0.5276615 0.23354073 0.27658927 -0.14058346 -0.09569076 -0.054038126 0.4341311 0.22748478 -0.051730685 0.1740741 0.124506734 0.1303215 0.0365031 -0.00388688 0.388042 0.30562145 -0.04722891 -0.27964136 0.39409885 -0.18261719 0.3346458 -0.27427453 -0.29299483 -0.171779 0.31987262 0.24136408 0.27175972 -0.06019993 -0.17755139 0.08064189 -0.27607137 0.24202256 -0.08534103 0.38911524 -0.16009597 0.072416626 0.13051191 -0.25135386 -0.019496743 0.30326837 0.32822984 -0.19827455 0.011881993 -0.18672173 -0.09046448 0.015680686 -0.14053324 -0.23904677 -0.049126342 0.26617864 0.25913095 -0.15946299 -0.18573003 -0.10209659 0.06456564 -0.1655873 0.25730738 0.20518917 -0.029501973 0.34681106 0.23257253 0.2178113 -0.22618908 -0.20216578 0.0053883283 0.00718259 0.18271431 -0.11727327 -0.08060075 -0.07372794 -0.13118611 0.23617019 -0.2525394
297 -0.6515381 -0.3765745 -0.31973258 0.36978063 0.31250018 -0.04144969 0.1981597 -0.25645468 -0.239557 -0.37275383 0.18052195 0.11598548 0.24624284 0.04205239 0.10987238 -0.22831266 0.050096508 -0.25346097 0.15680355 -0.22937784 0.25057042 0.1450482 -0.11935285 -0.13672619 -0.52742815 0.26837662 0.1528581 0.13930726 -0.059243526 -0.022682337 0.0900925 0.1617471 0.04673475 -0.14237252 0.10372063 0.13971542 0.3154869 -0.01331327 -0.34124455 0.6283817 -0.10402224 0.24094582 0.48016042 0.42964217 0.5386959 -0.3792526 0.08601249 -0.21567775 0.32704735 0.37195283 -0.5798094 0.07756323 0.7034305 -0.16923334 -0.6182821 -0.18300481 0.050074894 -0.02003244 0.40981516 -0.05431782 -0.7451237 0.071184054 -0.07068091 -0.3679994 0.15343073 -0.16856144 -0.403749 0.15050025 -0.3690775 -0.3949325 0.46158853 -0.10933902 -0.4327818 0.26622498 0.088314354 0.11813814 0.05627842 -0.18633722 0.2932925 0.25468397 0.013116888 0.33323133 -0.059452504 0.10859893 0.061203692 0.06479812 0.1312303 -0.4130009 0.30233026 0.4238327 0.34173512 -0.16380107 0.21925707 -0.2511617 -0.20805669 0.025179625 0.30854234 0.40423292 -0.26214454 -0.037580296 -0.45865092 -0.021214219 -0.17146054 -0.3300313 -0.36302963 0.3348599 0.49694356 -0.031177336 -0.042581894 -0.090054855 0.5943522 -0.014186465 0.10280966 -0.28048712 0.1813072 -0.33505335 0.3426544 -0.36460155 -0.40482458 0.1562725 0.13440837 0.21099284 -0.42996532 -0.1345396 0.21127848 0.2739638 0.15247892 -0.22286573
437 0.055213675 0.18685652 -0.34590444 -0.23910765 -0.1032934 0.19309764 -0.56890106 -0.020646088 0.091535844 -0.067471325 -0.020747323 0.0458321 -0.2623263 -0.11398357 0.028822852 0.036291987 0.25851014 0.2828117 -0.12820098 0.42090002 -0.47461614 0.40321642 -0.069367304 0.03704957 -0.24986766 -0.40777186 0.29889292 0.29912055 -0.340015 -0.054643955 0.2889272 0.5483032 -0.03654542 0.056666296 0.53121376 -0.024657859 -0.16494478 -0.27936172 -0.45682225 -0.2973339 -0.3194224 0.7452779 -0.17603233 0.042618025 0.008245975 -0.5479014 0.12860085 0.34079182 0.1532625 -0.14546786 0.04565656 -0.09847072 0.31809798 0.17498598 0.43304718 0.24360237 0.2567019 -0.18579273 0.24279162 -0.13856927 0.058136646 0.0702877 -0.04396794 0.073334426 -0.0005718553 -0.18706752 0.0063314848 0.23567161 -0.16185585 -0.0014869731 -0.23081325 0.2930973 -0.72668195 0.037270274 -0.11523553 -0.31091765 -0.08651318 0.4568212 -0.012639829 -0.3406347 0.25986108 0.08420832 0.23429957 -0.039287675 -0.09249079 -0.120628275 -0.040306136 -0.32004273 0.12696683 -0.073070794 -0.008921446 -0.18897568 -0.39268297 0.03613499 0.01869342 -0.02552934 0.40063223 0.024759505 0.02298785 -0.16245556 -0.25840348 -0.29475868 -0.0050093224 -0.1303097 -0.051784057 -0.09131474 0.00042682586 0.1401981 -0.21626021 0.2892702 -0.094155446 -0.12114885 -0.18134977 0.027637977 0.06514365 0.054173835 -0.081811994 -0.0096761035 0.21076205 -0.15064314 0.24794975 0.35932484 -0.230666 0.09291201 0.16737607 -0.020500919 0.70709234 -0.13495101
225 -0.24539621 0.42382535 -0.16466095 0.35406625 -0.25757986 0.52582955 -0.2029319 0.060488008 0.04923041 0.19432323 0.07860233 0.0864213 -0.32806745 0.60859513 -0.40955186 -0.11598203 0.00040802793 0.11018814 0.045716967 0.09149163 -0.64551836 -0.06722913 0.23130658 0.40213794 -0.04379222 0.13311382 0.1966024 0.46548253 -0.10341857 -0.30943468 0.18293998 0.19078161 -0.19285373 0.20992884 0.10953945 0.2963861 -0.058364447 0.2332523 -0.030760637 0.015634112 -0.101998515 0.3682758 0.21608362 0.3456218 -0.12503277 -0.5465506 -0.092083134 -0.26415777 0.036106955 0.15024944 -0.2448032 0.022515157 -0.106625445 0.05670773 0.3106629 -0.04628033 0.03570142 -0.25494745 0.016479425 0.15999147 0.19975145 0.2753131 0.026366485 -0.145501 0.2952256 0.3653284 -0.3071255 0.063306555 0.11418891 -0.525926 0.104100585 -0.18090992 -0.42694798 0.24543373 -0.06961725 0.17170897 -0.027503934 0.26216522 0.07719094 0.15829626 0.142344 0.5244203 0.1577401 0.1354442 -0.3566978 -0.14500758 -0.52357614 0.10585341 0.009564605 -0.069055766 0.06043251 -0.066300996 0.04916689 0.45931327 0.12791212 0.18789914 -0.23790023 -0.44051757 -0.098506965 -0.22054216 0.33204374 0.17068979 0.06243093 0.022287447 -0.13377626 0.050351523 0.18837774 -0.067312375 -0.22265516 -0.038108565 -0.25628772 0.3126908 0.15792099 -0.26260224 0.37801656 -0.27272204 0.04349081 0.08541418 0.043949377 -0.19260402 0.22410436 0.13772468 -0.10329745 0.07787331 0.34336507 0.181705 0.364718 -0.23417585
104 -0.44070676 0.029817302 -0.16872 -0.33992913 0.7062017 -0.25301847 0.46022758 -0.23437849 -0.19067582 0.219727 0.1374001 0.5544174 0.09536116 0.050751917 -0.5649396 0.02770723 -0.2944871 -0.26541653 0.62039155 0.41774318 0.20072255 0.37306628 0.14904538 -0.52679205 -0.56673074 -0.2558445 -0.050357774 0.19299366 0.048683584 -0.5518623 0.013892569 0.09190119 -0.10390557 -0.3141125 -0.06841577 -0.17622903 0.26123258 -0.057607908 0.13667297 0.10740312 0.032164972 -0.25269285 0.4969876 0.2081323 0.15817112 -0.68747365 0.38105837 0.060504436 0.46164334 0.043471467 -0.50623626 0.37372044 0.5062877 -0.3404202 -0.066192545 -0.3201202 0.103802845 -0.13724086 -0.12500656 -0.040764105 -0.5057861 0.18440856 -0.03756451 0.2382999 0.16395064 -0.24327582 -0.038810648 -0.08880707 -0.1284809 -0.27863318 0.38844422 -0.73618805 0.26246744 0.0013424008 0.44825026 0.3472866 0.0421828 -0.12120948 0.36176133 0.34831414 0.056799352 0.08990549 -0.1295317 0.35237426 0.063829124 0.19675517 0.16080078 -0.48586798 -0.21402715 0.14241455 0.46390864 -0.12446723 0.06199665 0.018732088 -0.36902964 0.18605106 0.35464087 0.33183002 -0.15592726 0.08212679 -0.6153758 0.079793386 0.004139333 -0.2565398 -0.33473316 0.39841366 0.15741013 0.3391741 -0.09635663 -0.22250058 0.27021366 -0.0021901482 -0.07167429 -0.37524423 -0.27438787 -0.15075547 0.29618594 0.30372772 -0.040177923 -0.06348939 -0.0927403 0.48137158 -0.43278176 -0.08411707 0.11158277 0.60012335 -0.33110762 -0.027502285
380 0.09507363 -0.0013687344 -0.30812636 -0.10549596 -0.17635402 0.094115496 -0.2509746 -0.023236424 -0.22041097 0.21307956 0.09098214 0.05544008 -0.3262914 0.08105995 -0.06996399 0.38570458 0.2912871 0.17504288 0.008510227 0.07324823 -0.5373495 0.12672858 0.14729479 -0.0801499 -0.24770223 -0.032943003 0.11846425 0.39772245 -0.13031729 0.16964746 0.22028287 -0.035063457 -0.19577588 -0.1229297 0.075817354 0.023238456 -0.17136379 -0.31043413 -0.2740573 -0.020425254 -0.02111623 -0.056247704 0.29444584 0.055265184 -0.31877077 -0.45455834 0.28556046 -0.019373171 0.10523942 0.3653046 -0.39883837 0.5365626 0.046950433 0.6423434 -0.004074626 0.16536567 0.0061403485 0.24845496 0.17274164 0.2590836 -0.12376876 0.13399255 0.087671675 -0.48313507 0.004721997 -0.2088176 0.050688393 0.63361514 -0.17937334 -0.31917924 0.11663872 0.33356178 -0.19543009 -0.15502346 0.35911328 0.022373402 0.08214891 0.48707846 -0.026345402 0.07077338 0.07302875 -0.19636165 0.066456385 0.40446118 0.006477707 -0.37117448 -0.04769043 -0.08097256 -0.17677091 -0.08371454 0.20706463 -0.34374976 -0.19119096 0.141149 0.10785829 0.33895695 -0.051746964 0.018928112 0.20447469 0.015443457 -0.5627158 0.12718469 -0.1496344 -0.28170884 -0.0047077276 0.16845216 0.23659365 -0.02811193 -0.019042505 0.1934587 0.28657693 -0.26857474 -0.012965886 -0.22822835 0.3417239 0.12467629 -0.12433164 -0.10929389 -0.34454548 0.06169289 0.1338969 0.28921843 -0.40606216 0.0005832214 0.5120645 0.054025643 0.5817099 -0.24276412
524 0.09453634 0.02282224 -0.5821573 0.23424321 0.13054585 -0.27638713 0.06826717 -0.30324945 -0.16802953 0.107557334 0.33027908 0.08383258 0.14355603 0.00047585354 -0.3316512 -0.101082616 0.14834605 0.4882414 0.042086847 -0.054497804 -0.40883017 0.11615836 -0.20658937 0.20112562 -0.2342404 -0.073112264 0.19191198 0.33373022 -0.01684474 -0.16467693 -0.05204362 0.14894687 -0.14533128 -0.0057507763 -0.54696465 -0.10288221 0.040940482 -0.29694206 -0.25390956 0.38276616 -0.25672504 -0.048450287 0.20873304 0.49466074 -0.17263138 -0.26780182 -0.14415726 -0.3174507 0.032958418 0.28168142 -0.32236186 -0.21435335 -0.19256179 -0.20588069 -0.1358613 0.025779795 0.36467332 0.20445313 0.004389193 0.11216515 -0.61856884 0.16731949 -0.052261077 0.0164845 -0.12302174 -0.46758363 0.06564229 -0.013988303 -0.18670692 -0.009450325 -0.08645758 -0.057384487 -0.2106339 -0.14618352 -0.10248048 -0.123301886 -0.23051396 -0.34588766 0.008667754 0.23078519 0.080297254 -0.10179031 0.4887387 0.23616523 -0.076263495 0.16317219 -0.03400101 0.13053124 0.26216456 -0.45875978 0.33228967 -0.10758471 -0.009058158 0.5551328 -0.008941383 -0.21381512 0.0151401395 0.21134637 -0.25496224 -0.53095967 -0.49825484 -0.0041669696 0.008384736 0.20200437 -0.16710322 0.28153583 0.33598143 -0.35284382 0.075328246 0.17351675 -0.16582176 0.05642504 0.13323738 0.3279672 0.55334747 0.14297228 0.1743391 0.10047401 -0.2998962 0.4689444 0.36210713 0.7679153 -0.16276488 0.18341485 0.017842356 0.73820424 0.1644461 -0.251688
139 -0.19256392 0.11228369 -0.2511029 -0.4814302 0.044953417 0.24541906 0.20445819 0.09441685 -0.11276015 0.21485743 0.014100026 0.17802694 0.10511138 -0.22444504 0.14061823 -0.20342754 -0.1754242 0.38349074 -0.08077316 0.2516225 -0.56945026 0.33623028 0.12445876 -0.11639148 -0.17069845 -0.2910757 -0.16556531 0.093171425 0.2946567 0.07117745 0.22913894 0.055482976 -0.029101973 -0.14769626 0.59357363 0.11782495 0.0399949 0.077976465 -0.025644325 -0.19642836 0.21092822 0.25709486 0.0994002 -0.04598342 -0.4063979 -0.042360377 0.26732105 0.12977788 0.34888208 0.24537027 0.15986189 -0.4226598 -0.04861017 0.38386843 0.15893073 0.20333049 -0.19570243 -0.14789301 0.05604847 -0.3609779 0.014651285 -0.11291982 0.103706405 -0.19264516 0.14818563 -0.24918647 -0.17346166 0.36768118 -0.1772325 -0.12301091 -0.408713 0.49819255 -0.09886368 -0.13573599 -0.2728733 -0.019510118 0.20446189 0.35275108 -0.093378656 0.05637994 0.2039329 0.30430734 0.15678576 0.21819036 -0.15584853 -0.14120726 0.26967385 -0.113657854 0.032030564 -0.033572484 0.08021263 0.16959716 0.507245 -0.3125754 0.08890981 0.08071985 0.17488156 -0.22163609 0.31239584 0.044726025 0.35002378 -0.08508845 -0.10396835 0.13836534 -0.21100461 0.13366343 -0.09654283 0.3205107 0.16765028 0.32152477 0.33535838 0.08276019 -0.099485554 0.33260006 -0.31333342 -0.06417389 -0.069844924 -0.07742178 -0.15517598 -0.31696013 -0.28761843 0.27962595 -0.20890547 -0.082800075 0.13529438 -0.44126895 0.5396417 -0.06098655
579 -0.092070356 -0.026119698 0.02868889 -0.33754086 -0.027110698 0.4020376 0.27923754 -0.22618456 -0.07013806 -0.08024121 -0.21952124 -0.14589176 0.13568512 0.10370191 -0.21799444 -0.37627357 0.20562029 0.11052352 -0.11645687 0.16508617 -0.09712034 0.17604415 -0.04411997 -0.19326477 -0.2000491 0.1904224 -0.21915776 0.122174546 0.18017077 -0.05042575 0.19999035 0.3294016 -0.35654837 -0.24398118 0.10337279 0.09220408 0.042538237 -0.05737295 -0.36604747 0.16357411 0.242799 0.2027794 0.13822344 0.14811407 0.23300764 -0.48930773 0.06526844 0.2748712 -0.3500352 0.14754279 -0.06379439 0.25137582 0.044042066 -0.0071273465 0.010270519 0.010608689 -0.12395914 -0.22235785 -0.28343195 0.08476211 0.234451 -0.07514691 -0.07968263 -0.15532641 0.14781092 0.21353528 -0.37527692 -0.1511415 -0.5082796 -0.15212257 0.14057136 -0.39220214 -0.3531743 -0.26886362 0.064914 0.11208089 0.20852056 0.08522799 0.11467111 -0.217521 0.041937467 -0.3404671 0.13895574 -0.29285902 -0.013579452 0.186871 0.18596762 -0.3252373 0.33974606 0.003631986 0.07154176 -0.16853565 -0.13345096 0.008861692 -0.45557597 0.27748144 0.1649124 -0.044655226 -0.21663755 0.28973278 0.04982626 0.0040638424 -0.021181889 0.19883266 0.1578413 -0.050118264 0.18774462 0.3246257 0.062550485 0.43943608 -0.008628454 0.0032682715 0.029293247 -0.12226941 0.10230693 -0.05140974 -0.07339005 -0.14917605 -0.15951307 -0.1912564 0.043400373 0.30093879 -0.03141975 -0.18867105 -0.28739285 0.32106283 0.18103477 0.12074033
44 0.087663256 0.113712765 -0.23779061 0.15743592 -0.26277515 0.43217143 -0.020188583 0.21283752 -0.17774902 0.021845993 -0.020850798 0.14873675 0.07671459 0.3047418 -0.022653958 0.13727947 -0.18749079 0.27549282 -0.33008447 0.13477468 -0.28398502 0.040684126 0.05721318 -0.10763858 0.10703318 0.09653927 -0.1403573 0.43931478 0.25836715 -0.111745834 0.36958617 0.08925203 -0.21829751 -0.3029211 0.10504607 0.5274382 0.09196239 0.21628992 -0.13677394 0.007877736 0.10239917 0.3763888 0.50073093 0.12970091 -0.47161248 -0.0374723 -0.1422893 -0.1501554 -0.035303142 0.29179296 0.020781284 -0.0046654562 0.20343369 0.10839451 0.6020155 0.08675988 0.075830735 -0.045721017 0.16978087 -0.3222021 -0.19602472 -0.20656039 -0.06411114 0.013792443 0.17085151 -0.22770189 -0.094990805 0.30202213 0.3269234 -0.1617911 0.24888232 0.4028092 -0.026934963 0.51086265 -0.1477422 0.25889555 -0.19192632 0.044158936 -0.31583682 0.0041550715 -0.0031183753 0.07713978 0.30066836 -0.09136513 -0.2822136 0.057475783 -0.028638087 0.14823721 0.14494814 -0.282774 -0.016536508 -0.3407558 -0.32911062 -0.19911382 0.27892146 0.011538777 -0.09828854 0.0069817957 0.24391021 -0.05862973 0.20011714 -0.13129435 -0.533314 -0.12039818 -0.12286714 -0.1486716 -0.15975021 -0.29848862 -0.10227921 0.023438474 -0.2033937 -0.0040070717 0.076401174 0.051081374 0.31002447 -0.054485973 0.34515303 -0.042802185 0.1814552 0.2176092 0.16430716 0.108165756 -0.20264634 -0.02381689 0.12290866 0.049745668 0.27784467 -0.26761034
356 0.13294536 -0.04537992 -0.1616744 0.3058225 -0.19984767 -0.023543179 -0.098504305 0.24858302 -0.12445536 0.2603162 0.08418336 0.54931647 -0.62363225 0.05887591 -0.21310262 -0.426356 -0.1039398 -0.39255798 0.32988185 0.17861064 -0.22836436 0.020055167 -0.012849778 0.032381736 -0.017712928 -0.23234539 -0.13046287 -0.1282027 0.43479836 -0.0802828 -0.2534529 -0.07041327 0.044410724 -0.20594476 -0.38000062 -0.03141902 -0.030844817 0.2045191 0.01863145 0.4943988 -0.011869077 -0.06952159 -0.005740387 -0.36742157 0.36735222 -0.20624019 0.21572651 -0.42831117 0.050220296 0.5487833 -0.1795205 0.092647605 0.028950877 -0.006689874 0.15397245 -0.3680273 0.26873738 0.12978126 0.034572292 0.17427619 0.14099255 -0.105014235 -0.19966662 -0.41276026 -0.021884732 -0.08080816 0.053112254 0.057172097 0.09897688 -0.1196106 0.10139565 0.387442 0.2628891 0.26865542 0.16360186 0.11691894 -0.30506396 0.16502023 0.023965431 0.1465408 0.31797478 0.1345248 0.22332837 0.049657416 -0.21997316 -0.28448734 -0.49569663 0.095361285 0.27839813 -0.09861848 0.39870143 0.012986914 0.20347258 0.32033604 0.24716477 0.33880126 -0.21741475 0.12582164 -0.06528871 0.021004612 0.16147745 -0.19814372 -0.14648417 -0.29144913 0.018569667 -0.42735732 -0.24255821 0.022755155 -0.4928058 0.3387649 -0.13592216 -0.20198266 -0.075126134 -0.15095344 0.36808205 0.18234465 -0.36090076 -0.11389331 -0.47038847 0.19247432 -0.068653844 -0.052566413 -0.27017105 -0.10235685 0.23019677 -0.19993867 0.4863116 0.28219864
559 -0.3427558 0.17644943 -0.40039954 0.029033788 0.24004556 0.26769054 -0.064560734 0.0053844205 0.15711066 0.23086944 -0.20779547 0.09718332 0.05834283 0.42400154 -0.082438186 -0.43371552 0.4280218 0.24603121 0.33028987 0.02017958 -0.25532076 0.20905496 0.27086395 -0.38025826 -0.38379085 -0.18904895 0.26780352 -0.024042422 -0.09100251 -0.14213134 -0.017763488 0.3608046 -0.16250733 -0.053086936 -0.10056533 0.16898537 -0.24531713 0.046037693 0.06306391 0.09891428 -0.32581815 -0.18013957 0.11746901 0.17390041 0.018181408 -0.13695446 -0.031689737 0.056219798 -0.028105369 0.1813831 -0.31199825 0.009873205 0.30221498 0.0377468 -0.2700849 0.017235251 0.2782097 -0.022082714 0.37182474 -0.061318595 -0.32265365 0.15173946 -0.029879421 -0.018107368 0.05237119 -0.47432494 0.11917987 0.45189744 -0.47418278 -0.3139972 0.37478787 -0.2161783 -0.0702536 0.11079532 0.033605278 0.17442878 -0.4736807 -0.25304556 0.26485538 0.10230435 -0.010062581 -0.060210813 -0.08122594 0.1476345 -0.60992503 0.12366738 0.12679468 0.17516616 -0.0636588 -0.21560079 0.30804256 -0.13071042 0.1314916 -0.13592876 -0.24938709 0.226479 0.35859734 0.54851264 -0.27149713 -0.0015535105 -0.17538893 0.02059386 -0.00083055807 0.06751705 -0.23107357 0.4769946 0.37022406 -0.14150974 0.10916979 -0.23771991 0.035566572 -0.00537697 0.4527148 -0.333831 0.23601523 0.30840346 0.17635731 -0.16296524 -0.028216364 0.0026333919 0.24950866 0.23723225 -0.21133186 0.5377999 -0.015487874 0.08620677 0.14069866 -0.34140253
424 0.17552482 0.4698293 -0.16960116 -0.0011892155 -0.23041146 0.23716183 0.095567726 -0.09515008 -0.094783306 0.05926801 0.22728457 0.11281344 -0.035687514 -0.08361446 -0.20572671 0.1384648 0.005038279 -0.062805474 -0.31675857 -0.26817346 0.06621696 -0.16851191 0.043169238 -0.025959091 -0.32674548 -0.14002666 -0.1415653 0.085383855 0.12491155 -0.082247935 0.3079087 0.5523838 -0.23856789 -0.343256 0.31749982 -0.09608656 0.21563531 -0.03367325 -0.05396279 0.2108174 0.07744142 0.35918912 -0.16657321 0.009279691 0.3996742 -0.11601921 -0.0067510195 -0.067636475 0.25124472 -0.004749218 0.09866267 -0.27519518 -0.020178653 0.045841094 0.58442456 -0.34367955 0.19461936 -0.22941756 -0.011386748 -0.15045375 0.18997036 -0.061331622 0.09978945 0.044173446 -0.04534094 -0.12561432 -0.028272063 0.35329038 -0.03178876 -0.10653165 0.1088357 0.40580073 -0.06286266 0.07068924 -0.03872513 0.036882386 -0.06676872 0.07926685 0.24002132 -0.3638952 -0.06680735 -0.2068906 0.20788683 -0.133899 -0.078374065 -0.24015099 -0.16775703 0.28749213 0.10470706 -0.17552274 0.10804074 -0.0047729937 -0.41602504 -0.003786626 0.038274623 -0.1727559 0.08658372 -0.12803446 0.007111857 0.29242933 0.24614584 0.08741122 -0.12564617 0.08981031 0.29481608 -0.044936217 -0.29159236 0.26462844 -0.27422073 0.30854896 -0.3215774 -0.31115404 0.15545365 -0.12752992 -0.06353156 -0.113748245 0.2985076 0.2256555 0.06979393 0.03310938 0.066704884 0.0034948743 -0.08601018 -0.23576224 -0.16934168 0.09117241 0.085370824 0.1903044
238 0.0824742 -0.070031434 -0.11420439 0.038477417 0.07954787 -0.07999301 -0.18759166 -0.052764617 0.09483945 0.18256229 -0.39815807 -0.13872147 0.21084641 0.017402345 -0.38493162 -0.1899467 0.1959973 0.22217149 -0.20396031 -0.28514966 0.046696056 -0.17002162 -0.07999537 -0.5231097 -0.03219625 -0.106803335 0.35954127 0.23748071 0.13433038 0.025752759 -0.0011442393 0.48129734 -0.19148837 -0.16872759 0.3983338 0.015024608 0.019319685 0.011436796 0.3235439 -0.18971184 0.14935943 0.010654426 -0.10279234 0.0066044414 0.21702038 -0.48064306 0.056448236 0.11626129 0.26159233 -0.06614281 -0.04160314 0.066905364 0.23293671 0.1914946 0.18585211 -0.15607959 0.14981808 -0.22183876 -0.11032272 -0.10788415 -0.0759237 0.0902331 0.14073329 0.24728882 0.24451019 -0.15308668 -0.18354739 0.34827176 -0.33361316 -0.1320932 0.17960519 0.18675013 -0.12141718 0.15625893 -0.20844638 -0.1398144 -0.025184747 0.04870417 0.050106876 0.044322744 0.009903316 0.46411684 0.20209664 0.079792246 0.030517159 -0.098708905 0.063725665 -0.010204932 0.14203425 0.008767227 -0.04290812 -0.04159449 -0.018443128 -0.017043559 0.34635472 0.085254036 0.0275154 0.017488167 -0.06451537 0.08606885 0.24109875 -0.27337784 0.036282774 -0.092428215 0.10541397 0.3846222 -0.1986565 0.039140005 -0.36249766 0.11426622 0.103573896 0.032022808 0.4882273 -0.04272782 0.051358636 -0.1449108 0.16286488 0.019047292 -0.03618738 -0.14993858 -0.12815866 -0.0012818342 -0.098626286 -0.02419796 -0.21262464 0.05656886 0.08019237 0.32050082
27 -0.09994888 -0.009953958 -0.4944735 -0.17383415 -0.121206895 0.03979313 -0.27812555 -0.057222236 -0.43495756 0.339133 0.15224743 0.007889927 0.18893944 0.37999713 -0.085210435 0.11729135 0.17611416 0.43587318 -0.18175411 -0.2699596 0.18168756 0.01869345 0.33363867 0.03261152 -0.69013894 -0.27191764 0.057370674 0.09563642 -0.15277952 -0.14903909 0.3833745 0.018058222 0.13556932 -0.4220264 0.16313751 -0.24105817 -0.09415025 0.39056152 -0.16757575 -0.08650848 0.26530138 0.034183722 -0.11128908 0.01128983 0.057682175 -0.25115684 -0.15736511 0.11445292 0.09628582 0.19818603 -0.11054492 0.3496684 0.120354705 0.21508688 -0.05595773 -0.08938846 0.20937774 -0.066989176 0.19288516 -0.31731415 -0.18040383 0.21618275 0.45977965 -0.16377074 -0.15197876 -0.34849843 -0.096405834 0.5204646 -0.2734532 -0.11449033 -0.07968942 -0.02054971 0.013162855 0.08679411 -0.05206323 -0.23316723 -0.028392956 -0.23238488 0.21983182 -0.2175701 0.024216669 0.18268386 -0.02568213 0.07042572 -0.24879271 -0.02399156 0.44393674 -0.004920865 -0.16328414 -0.3194424 0.17128094 -0.04670601 0.057570893 -0.306613 0.021227628 0.17462534 0.26562464 0.14952853 -0.06314425 -0.101864606 0.12196935 0.061917506 -0.31450656 0.2495884 0.044827014 0.40729368 -0.010464403 -0.06987973 0.04102715 -0.19115794 -0.019696932 0.37581196 0.36023825 -0.27097186 0.16729136 -0.06806676 -0.3462631 -0.28229007 0.36776358 -0.04520352 0.2512212 0.60999006 0.30497035 -0.12082487 -0.023406323 0.4336665 0.3051948 0.060128182
602 -0.17123255 0.3567473 0.28376335 -0.3341317 0.3089402 -0.12972593 0.20528306 -0.03931272 0.21825826 -0.57556164 -0.028136164 -0.5538825 0.4979701 -0.14588417 0.1499941 -0.383698 -0.49931255 -0.35111403 0.25102302 0.27525765 -0.15424843 -0.42985094 0.21212299 0.56856114 0.10518984 0.107352115 0.024727972 -0.36484307 0.33857724 0.023519833 0.71349496 -0.07155271 -0.17132775 -0.37569535 -0.016249942 0.065502696 0.30869538 0.46621534 -0.2940599 0.18123655 0.3048368 0.18777943 0.11503945 -0.015592762 0.18868157 -0.06028687 0.47381303 -0.3823283 -0.3733109 0.35714778 -0.19596256 -0.29020932 -0.26466277 -0.016517607 -0.027488222 0.27681366 0.18685265 0.3440568 0.3044393 -0.48267007 -0.012625629 -0.086712606 -0.36124453 0.0046510003 -0.13230927 -0.06984292 0.18137607 -0.18937297 -0.20424537 -0.1836583 0.24575825 0.19981688 0.650471 -0.35875407 -0.53381115 0.3022382 -0.23406234 -0.5252161 0.18557873 -0.14087343 0.36658666 -0.020415546 0.18082805 0.26910624 0.22621697 0.062149465 0.3316629 0.03794667 0.22765711 -0.391924 0.23572941 0.34870806 0.5106266 0.112400554 -0.068007216 -0.026323138 -0.014455822 -0.33918482 -0.06512705 0.2918801 0.38015273 0.13430378 -0.48685765 0.27949452 0.085648924 0.027760457 -0.019706938 0.19427192 0.43345004 0.13262868 -0.17627847 0.77575356 0.12666395 -0.10588471 -0.0309836 0.13017328 -0.29427758 0.7210875 0.2672414 0.38961753 -0.2949894 0.30788973 0.028454734 -0.33220473 0.023362016 -0.6527693 0.25679487 -0.19921021
572 -0.092378244 0.14642902 -0.72953534 0.1768604 -0.060206026 0.19592258 0.19545457 -0.13787167 0.28740513 0.08954228 0.32344964 0.10391724 0.35965046 0.18563434 -0.16944832 0.04207796 0.229186 0.29993665 0.058310844 0.17264521 0.22048414 0.45159262 0.022697007 -0.12333915 -0.300635 -0.04867684 0.14315647 0.1713934 0.00022525522 -0.3633768 0.5886027 0.71157014 -0.0037932612 -0.20259558 0.03817114 0.14340265 -0.15369403 -0.25523254 -0.45491886 0.1470661 -0.19770314 0.20989566 0.21056093 0.07553186 -0.34317315 -0.33160567 -0.15304153 0.31369615 -0.053061064 0.08758735 -0.16865642 0.42632896 -0.15522441 -0.30296978 -0.36677644 -0.115908474 0.029465761 -0.43743992 0.18483368 0.33647668 0.070183225 0.056886237 0.24331897 -0.070943944 -0.01703897 -0.36567053 0.01863649 0.5979485 -0.10441313 -0.024288619 0.095428616 -0.15984698 -0.05938397 -0.25475922 0.18986015 -0.13426487 0.42379585 0.0799524 -0.046924785 0.042660385 -0.33602968 0.0057957703 0.42767704 -0.062845625 -0.31471747 0.09365139 0.04712888 0.14511874 -0.14019379 -0.008967145 -0.19005091 0.01571949 0.04143717 0.104502775 -0.19476081 -0.16316572 0.3062938 0.1298132 0.07168219 -0.07203664 0.20667261 -0.27056497 0.041802224 0.265811 -0.21871348 0.14367038 0.25303414 -0.056088977 0.18448834 -0.3420667 0.32734993 -0.07275691 0.1465392 -0.14575516 -0.17386526 -0.2788758 -0.33502623 -0.1023561 -0.5125919 -0.06880155 0.17534539 0.2567419 0.22750793 0.27450055 -0.039049827 0.42983297 0.33567414 -0.2952592
329 -0.018578805 0.15385596 -0.004272118 0.063794374 0.19208106 0.22901067 -0.34640068 -0.08850495 -0.31481168 -0.112697326 0.13373801 0.03175028 -0.3352627 0.21963052 -0.19928104 -0.17631309 -0.019254223 0.09872485 -0.2317571 0.08852147 -0.06763643 -0.16149308 0.23598002 -0.13840887 0.08111154 0.3546327 -0.059269484 0.3624582 0.13008167 0.05855172 0.10893753 -0.12510802 -0.05257559 0.20514014 -0.34163296 -0.069456406 0.10003401 0.14294377 -0.10735141 0.018157253 0.021597533 -0.33122 0.45273316 0.08983243 -0.03114562 -0.21319094 0.13900553 -0.35120085 -0.12751047 0.17071983 -0.09720351 0.06037197 -0.081123896 -0.06355049 0.25432435 0.19287531 0.014125458 0.13999838 -0.060137443 0.18404911 -0.025162674 0.0011888529 -0.102042146 -0.073857084 0.13940176 -0.078052774 0.1629486 -0.10270565 0.27532062 -0.022581754 0.29711437 -0.15298566 0.09287489 0.24738078 -0.2704809 -0.46415251 -0.15321276 -0.78570366 0.0720414 -0.23022878 -0.1610186 -0.050881833 0.13713259 -0.042235717 -0.4100355 0.2785445 0.072160065 0.22571102 0.107161045 -0.3562736 -0.036204875 0.26237214 -0.09843588 -0.029440548 -0.22341898 0.3471868 -0.1586963 -0.41406205 0.1133372 -0.024859803 0.33121565 -0.078193754 -0.13154347 0.2015131 0.005991167 -0.35224226 0.034872353 -0.26048243 0.18280372 0.13254414 -0.09863749 0.049712446 0.016582195 0.09896549 0.052108422 -0.14922729 0.3302915 -0.16195992 -0.31318745 0.214905 0.15062146 0.15842938 -0.06782587 0.0897613 -0.33279395 0.07814177 0.095546894 -0.27801004
102 0.011061518 0.05907866 0.21240056 0.14401908 0.02105953 0.27776033 0.0443645 -0.0889344 -0.430116 -0.12724376 0.37070096 0.07505311 -0.106171764 0.069384076 -0.14839126 -0.37000573 -0.33680123 0.1662862 0.3799727 -0.053893145 0.0074222963 0.13155949 -0.29610303 -0.20597406 -0.2562805 -0.035006456 -0.11437633 -0.04636435 -0.11304878 0.13358262 -0.08313608 0.0033662135 -0.12500349 -0.021267595 -0.01687208 -0.14377934 -0.0268685 0.02355238 0.04487578 -0.28570855 0.22177635 -0.10342576 -0.061350826 0.17672154 -0.02741668 0.026708975 -0.1312377 -0.20615439 0.60644937 0.101686135 -0.32533306 -0.016468678 -0.18322863 0.037789885 0.32850584 -0.37054178 0.047212563 -0.01340573 0.013583149 0.11379603 -0.05383223 0.26032546 -0.019593982 -0.17493474 0.051586997 -0.2183913 -0.10006593 -0.04573029 -0.09709351 -0.22865637 0.09109959 -0.3466576 0.02391408 -0.02721021 0.1466579 0.11807877 0.028157186 -0.022585573 -0.04085987 0.04495995 -0.15458769 0.086342186 -0.059123404 -0.03873979 -0.041472916 0.31180218 -0.15936786 0.03939601 0.10180398 -0.031970344 0.20432775 -0.13784353 0.16038325 0.03929435 0.11571 0.31536394 0.1828965 0.4331987 -0.3699014 -0.1330419 0.11452209 -0.12194346 0.33760118 -0.17570207 -0.07658758 -0.08286443 0.22186425 0.42106918 -0.14749524 -0.113348685 -0.053050198 0.4729878 0.29726186 0.17060813 0.33759132 -0.20189415 0.047875684 -0.12735362 0.021198884 0.13159037 0.01725486 0.023317117 -0.18167451 -0.28511247 -0.13840118 0.5913521 -0.2461238 -0.062330246
199 -0.03732126 -0.2361591 -0.002634107 0.23724137 -0.16197683 -0.0011717133 -0.18733227 0.31757545 0.11230014 0.53524023 0.045592245 -0.18044807 -0.1774695 0.0043252166 -0.8163437 -0.039761316 0.36816898 -0.11790513 0.12148545 0.05355326 -0.5718616 -0.4763298 0.0074383453 -0.13221444 -0.08105905 -0.16506356 0.10194755 0.34826866 -0.15111072 -0.24406265 -0.18469241 0.025051465 -0.36892292 0.30727932 0.4217485 0.101992756 0.13877282 0.1547471 0.0933099 0.1257115 0.32915714 0.03155951 0.14413883 0.11102568 0.42259613 -0.7061201 0.011005722 0.023265408 0.19526312 0.2511566 -0.36910793 0.4213819 0.17803237 0.16221286 -0.089857556 -0.1634179 -0.15517835 0.017909462 0.04312973 -0.10143274 -0.18929496 0.12128316 -0.2809671 0.037228227 0.22952051 0.14914879 0.14277118 0.38015676 -0.07900798 -0.48045048 0.22731884 0.13535008 -0.15033533 -0.13673893 -0.3529686 0.15464652 -0.076320186 -0.07318839 0.21636464 0.0750597 0.21324755 -0.004002424 0.055482365 0.10439015 -0.13181223 -0.39594808 0.11091114 0.08350384 -0.24299616 0.13767043 0.23887104 -0.37378052 0.1324983 0.008965559 0.115027085 -0.04768212 -0.12056101 -0.037846364 -0.13788924 -0.31841257 -0.11872296 0.0150700575 -0.16237766 0.17698084 0.020311777 0.48060453 0.099676475 -0.060965378 -0.0671625 -0.053991836 -0.042938985 -0.345566 0.053479817 0.08562505 0.21259312 0.13754761 0.4669497 0.038414303 0.01913099 0.28216934 -0.01756818 0.215497 -0.16740197 0.21890418 0.5335526 -0.45194745 0.47804725 0.4295521
56 -0.04031612 0.1869231 -0.121095106 0.19334716 -0.027968228 -0.2265586 -0.17101337 0.25784335 0.0589183 -0.6750626 0.11869504 -0.13704047 0.39018393 0.2968313 0.043906383 0.018393755 -0.11276027 -0.2674925 -0.08389978 0.0909433 0.28148475 0.026057094 0.17115343 -0.17871712 0.4889223 -0.08374755 -0.23474255 0.22976434 0.61038417 0.0029630105 -0.18631637 -0.20860036 -0.19878487 -0.12010206 0.18309699 0.30955103 0.24998955 0.07460836 -0.045126718 -0.2519165 0.13494363 0.30114904 0.03976903 0.2868992 -0.11661463 0.15634948 0.10187311 -0.04188705 -0.47747526 0.065938495 -0.08378569 -0.4039797 -0.10913231 -0.06540495 0.34347883 0.24879783 0.12707455 -0.30237728 0.007828402 -0.66861176 0.13619624 -0.4864309 -0.13303147 0.2066019 0.2999725 0.3754312 -0.4382168 0.06050047 0.37414408 -0.20172235 -0.17500454 0.011297341 -0.03084649 0.46592212 -0.5328109 0.3165786 0.026273293 -0.10798452 -0.38623032 -0.017493375 0.35312602 0.27407488 0.16083457 0.01688283 0.11450663 -0.19246638 -0.19918008 -0.12629278 0.042312272 -0.12518452 -0.038307596 0.22020166 -0.2510107 -0.03219047 0.24771653 -0.022493029 -0.6732197 -0.22832304 -0.079033844 0.19002403 0.2646178 -0.22375771 -0.21378136 0.085980475 -0.24176793 -0.026279725 -0.38074258 -0.41239387 0.2629632 0.28890568 0.052025106 0.39554203 -0.37361848 -0.0286585 0.06887293 -0.20007336 -0.11204789 0.01893723 0.3444771 0.017523868 -0.044233914 0.012680833 0.06049322 -0.45101166 -0.023383833 -0.1155914 0.2741621 0.12629704
533 0.081553325 -0.19017789 -0.5165695 0.056270108 -0.036861267 -0.19608973 0.11419749 0.1672904 0.13793671 0.1950087 0.45688152 0.16215199 0.21547362 -0.0116161 -0.30128706 0.5108723 0.228614 -0.14962572 0.47129318 -0.1264149 -0.26439315 0.3116569 -0.005222003 -0.5121225 0.041016333 -0.09544744 0.3011565 -0.08302928 -0.2722435 -0.50742644 0.020524636 0.11439668 -0.4481683 0.24711649 0.70816046 -0.05766661 -0.048360787 -0.1675082 0.14093283 0.21458167 -0.12101911 0.30345044 -0.28353813 0.34940574 0.15662591 -0.52060103 0.15097468 0.15417726 0.028509647 -0.3989748 -0.65096396 -0.19038418 -0.052726507 -0.22332549 -0.01276114 -0.25956097 0.18979459 -0.13314277 -0.031539638 -0.35480034 -0.33829972 0.14779681 0.020963218 0.20727986 0.18776813 -0.17747064 -0.04568652 0.1920892 -0.21323436 -0.6692358 -0.010166472 -0.22025979 0.09124485 0.38550493 0.30002385 0.013603657 -0.04445612 0.40304473 0.08421464 0.18990313 0.3599398 0.06823329 0.31918454 0.16030695 0.3789264 -0.15611513 -0.32899722 -0.12846735 -0.09502612 -0.009177457 0.29835123 0.23288612 -0.41191998 0.35533676 0.10840154 -0.20763111 0.1302361 0.4407835 -0.43505114 -0.53805035 -0.5131415 -0.1943171 0.15667868 -0.19117324 0.07389002 0.44154483 0.0842551 -0.2684833 -0.20622244 -0.2897253 -0.048515175 -0.36314857 -0.23373973 -0.36890602 0.4356068 -0.0018198297 0.2587645 0.31706193 0.14031388 -0.092611924 0.5598511 0.2922212 -0.34303933 -0.09717645 0.22680467 0.30440664 0.2771326 0.04536738
468 -0.1731796 0.65039146 -0.1636102 -0.3869412 -0.110642545 -0.22539541 0.29939324 -0.038992822 0.113722794 -0.95244426 0.42816725 -0.6835831 0.02532505 -0.25486216 0.07379249 -0.4223887 0.1216819 -0.31241232 -0.2764336 0.30313703 0.042648252 -0.51741624 0.10854013 0.24082612 -0.11349289 0.060893055 -0.39303058 -0.26696196 0.19316562 0.24123053 0.25440437 -0.59491694 -0.3666654 -0.41721064 0.26274928 -0.05913467 0.63666457 -0.064152785 -0.2088748 0.32725158 0.07297814 0.90819794 -0.2123364 0.025677776 0.295514 0.76357645 0.8877856 -0.39162767 -0.30873135 -0.34793735 0.14121452 -0.44340694 -0.10496337 0.14733528 0.27696246 -0.2318417 0.045802668 -0.118216656 -0.13761304 0.029488428 -0.13610192 -0.27505666 0.040138517 0.30933845 -0.10341554 0.31566396 -0.078771345 -0.5715893 -0.009143524 0.18809772 0.16778079 -0.16109675 0.0019362612 0.01248319 -0.32348967 0.41799083 0.22289124 -0.20873952 -0.007630377 0.09983615 0.09429792 -0.38041946 0.18619463 0.3361973 0.10122779 -0.17652014 0.1002788 0.23088598 0.68562096 -0.19796436 0.19956023 0.024261113 0.26928696 0.600688 -0.17006844 0.10013736 -0.16075458 -0.68761045 -0.044446893 0.5036835 0.1285204 0.4490159 -0.26736882 0.3064216 0.48447913 0.017685108 -0.23943952 0.16874282 0.22238205 0.06432559 0.00480266 0.6711302 0.09700264 -0.08797836 -0.26978058 -0.2714483 -0.31084034 0.31985548 0.005387609 0.15429391 -0.28212455 0.012304456 -0.015033809 -0.896193 0.27884522 -0.23697917 -0.42083028 -0.040529586
291 0.37288743 0.23292124 -0.4809634 -0.08787185 0.42387342 0.04237411 0.32930723 -0.24737947 -0.15917249 -0.08440721 0.25990933 -0.04894097 0.015970726 -0.26263976 -0.022996617 0.12577216 -0.028307678 0.17860676 0.30895996 0.020957857 0.087845065 -0.10939881 -0.25028962 -0.09108231 0.2148978 -0.16054296 0.22427465 0.077556185 -0.05887856 -0.2074705 0.2794072 0.31586826 -0.026003806 0.25170523 0.51940864 -0.2756503 -0.14187975 -0.18853687 0.086101115 -0.21496555 -0.26289386 0.08944985 -0.16198154 0.2850015 0.00542653 -0.34457955 0.08423055 0.23797141 -0.05247446 -0.86468494 -0.2605709 -0.39881065 0.05575874 0.2688796 0.22661228 0.037755135 0.09477441 -0.06008057 0.14600001 -0.08835825 -0.15819599 0.10573567 -0.7840671 0.21624473 0.37530193 -0.22534463 -0.033580706 0.19013746 0.30047464 -0.2510664 -0.15067102 -0.38330558 -0.15291777 -0.35205898 -0.11914804 0.13038068 0.041694473 -0.19162035 -0.32904452 -0.31053063 0.1853196 -0.039886773 0.31451982 0.39511684 -0.016771782 0.39088306 -0.054446667 0.012253744 0.07399277 -0.14933953 0.3796888 0.15936822 -0.01999236 0.2192912 0.2094072 -0.4041938 -0.020738102 0.36634058 -0.5136716 -0.41215035 0.006476425 -0.57590365 0.18181619 -0.046575297 -0.11984781 0.07798716 0.06377593 -0.17161535 -0.15879135 0.13513806 0.34110805 0.099224836 0.104606554 0.04404685 -0.034903985 -0.0316917 0.4086042 -0.26990387 0.15303187 -0.041897178 0.16800602 0.1898064 0.30543402 0.12663285 -0.31532052 0.17129423 0.17814463 -0.31847847
433 -0.092793874 -0.2606549 -0.02349869 -0.23337735 -0.019020278 -0.17482218 -0.03350721 0.09536425 -0.32523578 0.11803294 -0.021946555 -0.12135749 0.13832666 -0.07637601 -0.23552527 -0.16336171 -0.12199754 0.22872 -0.28280666 -0.3410959 0.24530008 0.28532735 -0.03218205 -0.06159752 0.11831006 0.26184776 -0.13316084 0.09246504 -0.265383 -0.08876859 0.20209266 0.23460937 -0.33365127 0.23458926 0.39179355 -0.2237594 0.089639045 -0.10165603 -0.1404445 0.109587945 0.18299581 0.03730794 0.08693976 0.075131446 0.055152427 -0.31771013 -0.16378295 0.059512697 -0.25378034 0.008919298 -0.008621432 0.26042566 -0.054777827 -0.13093024 0.16664208 -0.73769695 -0.073272265 -0.19554807 0.0050672675 0.31230572 -0.17689447 -0.10427684 0.27819088 -0.36149627 -0.20260182 0.2504426 -0.40384668 -0.21685831 -0.22061759 -0.4007187 -0.080970086 -0.098340765 -0.21469237 0.13804649 0.18757834 -0.20020543 0.34313232 0.077888444 0.13559984 0.0051521477 0.018866591 -0.08475434 0.2686163 0.031635553 -0.013287051 0.21767423 -0.23128493 -0.25596783 0.093899176 0.18538843 0.06760904 -0.0115317125 -0.073889896 0.2889739 -0.35745326 0.20279765 0.035612654 -0.23257604 -0.014442329 0.18965413 0.010062818 0.16367243 0.09182036 0.054332446 0.18977398 0.12509318 -0.026981186 0.055222437 0.006957114 -0.2722833 0.05196006 0.08794349 0.22701105 -0.055619225 -0.033455763 -0.14015669 0.011857749 -0.0270933 -0.135202 0.13554716 0.39481312 0.07509669 -0.41371205 0.31844094 0.32437027 0.32113716 -0.28227088 0.14877449
62 0.25091818 0.30553266 -0.027708929 0.30463898 0.38541168 0.14411022 -0.047828194 -0.14761859 -0.33594617 0.08879768 0.24301872 0.24692361 -0.15338546 0.055029113 -0.4347757 -0.02620621 -0.07261178 0.2370182 0.36623144 -0.06525187 0.1910298 0.20916717 0.18298802 -0.06725196 -0.08723139 -0.076534435 0.08783823 0.21582744 0.10788409 -0.24263203 0.34802762 0.22256908 -0.29446045 0.041816894 -0.30853438 -0.087634176 -0.015399871 0.08786371 0.18996206 0.24453804 -0.21092433 -0.02861574 0.04867403 -0.007903429 0.22358198 -0.44916308 -0.035212893 0.031205421 -0.02684499 -0.426203 -0.110293634 0.07007697 -0.22388393 -0.14260526 0.28927904 -0.31888828 0.1772358 -0.22102007 -0.01239665 0.1713764 0.020072974 0.21874924 -0.09877354 0.038857143 -0.1889228 -0.033550356 0.05232846 -0.06580081 0.00075721345 -0.22060889 0.30422676 -0.3214571 0.09695911 -0.13889566 0.1591168 -0.15977521 -0.21193904 -0.30351606 0.08836774 -0.0636871 0.044927314 -0.30384737 0.14113466 0.008932693 -0.23435578 0.35503963 -0.21110971 0.08408054 0.05719629 0.007691489 0.19246547 -0.14533658 -0.09759288 0.21802689 -0.20958303 -0.07672284 0.094526164 -0.08007211 -0.22255781 -0.1439071 0.14375815 -0.24370247 0.25141075 0.0049293106 -0.14864781 0.034765504 0.18319425 0.2847233 -0.36483157 -0.20002408 0.013063928 -0.22026728 0.32857937 -0.07943822 -0.06564178 -0.31278905 0.14279546 0.25556728 -0.17328356 0.20937018 0.21002318 0.17564124 -0.030448003 0.12426958 -0.26554334 0.39614958 0.12835506 -0.071130194
595 -0.11107961 0.03147159 -0.5132178 0.23192862 0.30407462 0.44037348 0.056271564 -0.11847794 -0.43587556 0.04207801 0.21309634 0.24526809 -0.02476423 -0.1970273 -0.059657652 -0.033574615 0.25529805 -0.24479236 -0.0044025895 -0.33046377 -0.061905768 0.54687315 0.24174725 -0.31002083 -0.12125955 -0.56470025 0.014094347 -0.16333945 -0.004745031 -0.35930008 0.049903177 -0.14898187 -0.42022622 0.25459677 0.099219605 -0.10863368 0.19996944 0.1909082 0.3644331 0.4847598 -0.049140017 0.04989422 0.030337678 0.5970183 0.12937142 -0.06929515 -0.09027133 -0.05232199 0.79816014 0.016720928 -0.41791344 -0.22444212 0.26704764 -0.2555059 0.049047224 -0.08956736 0.021561423 0.04246312 0.2358097 -0.11776653 -0.19390619 0.1965517 -0.2610464 -0.000546204 0.22559856 -0.055514492 0.17029776 0.40762052 -0.018947797 -0.35452268 0.05149847 -0.44954708 -0.0059064804 0.0919511 0.31531805 0.34483314 -0.050929233 0.03594162 0.37731326 0.32821515 -0.11909953 -0.04024554 -0.15558745 0.22566812 -0.16339329 -0.19217323 -0.54140526 0.268183 -0.20100956 0.12581848 0.32140842 -0.27941677 -0.21153292 -0.29490015 -0.2020647 -0.09271832 0.20011833 0.7047432 -0.17168579 -0.11221532 -0.2349584 0.12748702 0.0010933697 0.09397453 -0.030327896 0.18643071 0.09526818 -0.16487445 -0.19618136 -0.16202486 -0.017849129 -0.15390931 -0.0059159785 0.15137184 0.25836155 0.14185281 0.45128366 0.019376285 -0.061917316 0.32204193 -0.08283258 0.44395128 0.11268951 -0.13414434 -0.052913666 0.30895525 0.2826842 -0.03422319
338 -0.22510111 0.21274738 -0.19479506 -0.2508944 0.3010611 -0.29774767 0.45772693 0.033543527 -0.075122155 0.48467192 0.072628245 0.25319594 -0.13883053 -0.06862863 0.03885207 0.16003115 0.47636256 0.1735327 0.7006228 -0.017220948 0.28552273 -0.024329517 -0.053092502 -0.08096375 -0.6038995 -0.055258334 -0.008734723 -0.072926275 -0.27356946 -0.36518076 -0.111134805 -0.15526243 -0.05263965 -0.26493815 0.031464104 -0.27457112 -0.016861955 -0.266773 -0.20963772 0.19174089 -0.5758035 -0.12364639 0.21129715 0.17851493 0.16378137 -0.24040072 0.29617012 -0.38674313 0.30243498 0.13745621 -0.3089206 0.2787503 0.08108651 -0.3310085 -0.39868003 -0.37806785 0.03496571 -0.078531004 -0.04352181 0.123301364 -0.3827285 0.024169914 -0.2399375 0.12584636 -0.15204214 -0.021496382 -0.2162729 -0.11492222 -0.26202676 0.19983849 -0.15461652 -0.62075704 0.092912845 -0.37982935 0.3984856 0.35051802 0.2070087 -0.26577923 0.053841308 -0.035048347 -0.15615791 -0.33785802 -0.07724119 0.107270546 -0.3733013 0.06672954 -0.16994803 -0.09353963 0.060581323 0.36863855 0.14906077 0.054725043 0.17461208 0.021622315 -0.19585192 -0.33594942 -0.07204475 0.4793865 -0.029447565 0.11384392 -0.3333192 -0.18552496 0.0832304 -0.22378992 -0.35773784 0.2865743 -0.20860776 -0.095211826 0.21250111 -0.16808373 0.2790614 -0.005379309 0.17140266 -0.3749496 -0.31005523 -0.3070026 -0.12913707 -0.104449995 -0.10277567 0.022436665 0.21457596 0.2094703 -0.16139102 0.35660684 -0.14047477 0.5833729 -0.23208046 0.035897814
65 -0.085720874 -0.15630239 0.12988779 0.16408342 -0.38335624 0.06327461 -0.21316297 0.059079744 0.120533526 0.09594317 0.09792575 -0.12413235 0.07869808 0.34235054 -0.41851574 -0.19679731 -0.41656077 0.21475571 0.1625834 -0.013239007 -0.23352681 -0.039201543 -0.13254136 0.12720667 0.23674361 0.36258456 -0.21118286 0.068387106 -0.0063419756 0.53094023 -0.02858711 0.038431905 -0.019942917 -0.004733347 0.27003065 -0.12694184 0.12195667 -0.019228797 -0.177838 0.012679053 0.10308373 -0.10903852 0.021912454 -0.15411866 0.22018896 -0.4307272 0.14309865 0.098958276 -0.09796241 0.34814277 0.031033969 -0.008732659 -0.14259793 -0.20762299 -0.11237716 -0.04632004 -0.053058144 0.12769294 0.31181055 0.26895115 0.063219614 -0.27911013 0.106686525 -0.36558512 -0.031303365 0.4509323 0.1597013 0.13217406 0.011646057 -0.37250218 0.35367692 0.41388023 -0.16105221 0.08658885 -0.11087327 0.30013117 -0.24139173 -0.32092163 0.0553488 -0.26698568 0.08825675 -0.10071769 0.30593407 -0.05588917 -0.12828656 -0.017479355 0.44265747 -0.06287701 -0.031200958 -0.06692169 -0.05993546 -0.099798344 -0.18619049 0.108131945 0.005973265 0.06368024 0.15377362 -0.32834014 -0.19296007 -0.024896547 0.38847616 -0.09080185 -0.046103626 0.13830496 0.060031805 0.37292525 -0.04780033 -0.1383273 0.14262225 -0.2648706 0.057232168 0.00017732306 0.18231772 0.12390231 0.17817703 -0.035948597 0.046458047 -0.17223291 0.013009941 0.4330696 -0.06271958 0.44618636 -0.20974323 -0.069362745 0.007269799 -0.33606434 -0.10569666 -0.17952566
554 -0.081064865 -0.16837507 0.06944483 -0.052524228 -0.10426232 0.07597726 -0.11918891 0.58140767 -0.033609014 -0.2799272 -0.09277821 -0.1665077 0.31468076 -0.08567662 -0.040475737 -0.12791355 -0.1426416 0.10395119 -0.3357428 0.440461 0.028145315 -0.07668941 -0.5287217 0.2042127 0.25984716 0.46420413 -0.31514293 -0.00340533 0.42130262 -0.3482776 0.18079682 -0.39938846 -0.14407253 -0.0015968297 0.5451712 0.18388647 0.459476 0.05636381 -0.6918669 -0.07574832 -0.1680972 0.31770954 0.06501227 -0.5017006 -0.3514295 -0.0038213423 0.31686604 -0.48367998 -0.032411534 0.1865609 -0.22284792 0.036332265 -0.03555371 -0.27921405 0.21524882 -0.015185485 -0.07905549 0.029533653 -0.23980759 -0.1015159 -0.25654718 -0.1750251 0.17197202 0.43929076 -0.032583427 -0.0534159 -0.2620789 0.1106859 0.03214475 0.5921281 0.118600525 0.033321317 0.016869776 0.07291453 -0.3494162 0.14793512 0.0033873024 -0.04656468 -0.22917542 -0.027172983 -0.16787341 0.25768897 0.4407183 -0.47726312 0.24005656 -0.09561357 0.11611742 -0.2067061 0.46918643 -0.37261584 -0.42041993 0.18913107 0.1794653 -0.254167 0.20550972 -0.34103447 -0.3120522 -0.17008165 0.5636313 -0.19872384 0.37488753 -0.049096983 -0.2779477 0.1366324 -0.22098324 -0.6119265 -0.44224793 -0.09226012 0.5049386 0.22270113 0.27434397 0.26230875 0.16943246 0.84543115 -0.31513846 -0.2599131 0.068442054 0.060234748 0.2726291 0.17368147 -0.001407527 0.1604718 -0.2419181 -0.3247294 0.0062646917 0.10046001 0.1222083 0.04022616
596 -0.07304872 0.3249432 0.10245068 -0.07598 -0.32135886 -0.27030796 -0.1895611 -0.04889044 -0.37786847 -0.0059501496 0.23866841 -0.5411035 -0.14151531 0.11136644 -0.06571918 -0.09814867 0.042896308 -0.40476307 0.078968085 -0.22979854 -0.20776981 -0.56364024 -0.2695252 0.38173372 0.27798635 -0.16382685 -0.010294511 -0.018169709 0.18500261 0.27385318 0.16935624 -0.6738201 0.21592392 -0.6384072 0.51739043 0.31365252 0.29324162 0.24773356 -0.073343895 -0.044195846 0.2533835 0.48769808 0.3238172 -0.17959937 0.19575377 0.4569228 0.257654 -0.5112099 0.29835248 0.06509132 -0.12533 -0.9303022 0.24818666 0.009836061 0.21832535 0.190985 -0.06446222 0.047952022 0.30200574 -0.7039414 -0.35341132 0.0126858745 -0.529063 0.061503366 0.0056968024 -0.43662253 0.073498465 0.10115841 0.22633985 0.39940938 0.15136516 0.12527998 0.34046674 0.11716974 -0.4168779 0.3558715 -0.13910127 -0.29242375 -0.17027204 -0.35009277 0.09403724 -0.39131817 0.052719314 0.23436473 -0.15095435 0.3456896 0.14584981 0.020305896 0.33946875 -0.44037732 -0.05919205 -0.10542133 0.19057737 -0.049942255 0.452701 0.1314974 -0.39604762 -0.41920668 0.3618786 0.22227105 0.0991684 0.35365924 -0.6463617 -0.28365615 -0.13157754 -0.1269457 0.034733642 0.14911984 -0.08164223 0.19913386 0.23757486 0.31736988 -0.18993294 -0.18664153 -0.14694788 -0.31388205 -0.029389458 -0.37627968 0.13418995 -0.10422512 0.05034142 -0.225394 0.079843804 -0.2631007 0.22575454 -0.48004916 0.08562484 -0.26673672
201 -0.08267074 -0.48180658 -0.182756 -0.23826998 -0.19116595 -0.33815494 -0.62360275 0.04017645 -0.027273497 -0.5037922 0.124391764 -0.37248367 0.46161312 0.08652654 -0.15675 -0.19926713 -0.21472701 -0.2030757 -0.21738534 -0.052196734 0.096321926 -0.14850083 -0.039473306 0.55886537 0.4147899 -0.02255449 -0.42608836 -0.14979872 0.13627842 0.27998602 0.36544842 -0.4371742 -0.5303677 -0.23947777 0.4211731 -0.010594523 0.26314658 0.15677083 -0.04605567 0.16553755 0.18050084 0.7680833 0.29756793 -0.18569225 0.01837748 0.11247082 0.11651782 0.21154721 -0.20772985 0.5903873 0.32737577 -0.80622154 0.18916756 0.013546475 -0.076903045 0.33492348 0.09524735 -0.1759271 0.017704677 -0.5475639 0.033397127 -0.28308994 -0.17517468 -0.09645821 0.19149582 -0.3814505 0.0562751 -0.23527198 0.12180512 -0.24151728 -0.2270809 0.07581977 0.44126213 -0.032575466 -0.52782154 0.33840021 0.005637553 -0.58774775 -0.18370047 0.015664263 0.20620337 -0.19537205 0.011730046 -0.1609026 0.018836422 0.19940265 0.4687097 -0.22547172 0.31876054 -0.3981847 -0.0012223885 0.015428984 0.2043702 0.21960646 -0.2970377 -0.27185845 0.21432845 -0.47938752 0.27005997 -0.054999925 0.10091045 0.33048794 -0.46809095 0.2523946 0.08635128 0.0055151586 -0.24374366 0.050807968 0.35665128 -0.1842279 -0.25427753 0.31204417 -0.7438083 0.071827695 0.19072126 -0.21391214 -0.1905292 0.037320055 -0.22486286 0.095856674 -0.32692674 0.2183541 0.17693502 -0.6256735 0.2522829 -0.1293364 -0.2540503 -0.2005084
390 -0.005036958 0.1562094 0.23933925 -0.055467345 0.07185331 -0.2784383 0.18770896 -0.1195422 -0.2427766 -0.23669317 0.022604806 -0.48634297 0.18335506 -0.11158823 -0.087557875 0.15566145 -0.26984861 -0.2882153 0.057086494 -0.03568592 0.30540892 0.04503211 0.07612665 0.134825 0.1286295 -0.093700916 0.038828667 -0.4097799 0.35742733 0.0223035 0.10494575 -0.24470985 -0.38022116 -0.4194323 -0.1230833 0.13664381 0.60216457 0.17844827 0.39043155 -0.02888779 0.6008526 -0.0939261 -0.1296154 0.035719164 0.29647627 -0.27749705 0.34167102 -0.18428445 -0.11109062 -0.058589417 -0.18724677 -0.31330094 -0.29876125 -0.17728396 0.2879115 -0.17106143 0.39805397 0.054613102 0.16621973 -0.77064043 -0.021897893 -0.27009606 -0.06878666 0.14630394 0.09908971 0.010301421 -0.19695456 -0.37376383 -0.0102467425 0.11158981 0.027423142 0.06634306 0.34553835 0.2853283 -0.37877586 0.033625856 -0.7768822 -0.04841868 0.118269786 -0.21237004 0.6797107 -0.21418363 0.07464729 0.18803892 0.4754113 0.15434852 0.08112662 -0.2023863 0.13976151 -0.14843598 0.16750006 0.465244 0.31807616 0.2033582 -0.3111336 0.069342285 -0.35793257 -0.12759604 -0.24042639 0.21774948 0.23794308 0.16213407 -0.16770455 -0.045085907 0.14344168 0.031535484 -0.20622404 0.24270853 0.07856468 -0.124595754 -0.45655558 0.37286842 -0.057492975 -0.09921223 -0.44833553 0.22755864 -6.296254e-05 0.22804597 0.42781374 0.1152107 0.2735707 0.39082512 -0.061067205 -0.5093857 0.15029077 -0.22902319 -0.012909138 0.22171184
353 -0.44071215 -0.017882392 -0.23659024 -0.1301325 -0.12944028 0.410864 0.15322642 0.060206052 0.37892687 0.21610509 0.16446684 0.041971944 -0.018795712 0.35321975 0.099879555 0.07763732 0.036753003 -0.22566293 0.089157246 0.036418453 -0.33050156 0.41137972 0.036214244 0.1412782 -0.19704403 0.11600726 -0.12966013 0.07880924 -0.22652063 -0.02422613 0.16029282 -0.008656726 -0.5728941 -0.2503617 0.35537726 -0.40742448 0.25149062 -0.033328343 -0.19583748 0.01975681 -0.05505119 -0.08843784 0.2344048 0.044822358 -0.18915533 0.10676971 0.26646525 -0.021977352 0.19264656 0.10510047 0.33087867 -0.093271576 -0.080885775 -0.02044547 -0.42069128 -0.0395003 0.101242036 0.1442309 0.2578436 -0.112174295 0.020222498 -0.0024439017 0.30090973 -0.22176743 0.20097189 -0.25432652 -0.39041823 -0.05700444 -0.17055158 -0.3699658 -0.6399781 0.29331574 -0.35192242 0.4395143 -0.23477957 -0.07811982 -0.14899132 -0.0042076707 -0.21071212 -0.28288662 -0.22698136 -0.406032 -0.119441025 0.1258805 -0.43728468 0.1229141 0.61173975 -0.48165148 -0.038886987 -0.33677933 0.0061259395 0.23524252 -0.03882618 -0.38861695 -0.065213755 0.18518129 0.0024396318 0.11527916 0.2410731 -0.13388777 -0.15321341 -0.03746686 -0.09979939 -0.3659013 0.25408074 0.44138345 -0.007101655 0.00021683538 0.26981893 -0.14224926 -0.11351281 0.030967394 -0.27189457 -0.09806561 -0.1009659 -0.017293604 0.14822835 -0.40162548 -0.0062092077 -0.3711851 0.027179811 -0.10798457 -0.20505859 0.19563581 -0.23095077 -0.3191768 0.018930968 -0.29473585
281 -0.5508841 -0.0467674 0.0013238675 -0.090174764 0.107713535 -0.28545287 -0.07816649 -0.13421106 -0.35983878 0.43102753 -0.37577775 0.11363934 -0.062677704 0.06579655 -0.038563237 -0.037217326 -0.3051328 0.56121397 0.03475003 0.13823535 0.50572807 -0.13486955 -0.21254438 -0.10118289 -0.17408903 -0.18200158 -0.39223766 0.27478072 -0.13901412 0.06277092 0.105927646 0.19478585 0.25126475 -0.06923072 -0.024902396 -0.32124224 -0.28295007 0.17196101 0.049886394 -0.14732426 0.25294772 0.24489507 0.24677119 0.11920763 0.12855466 -0.24156924 0.015161412 0.06269955 -0.40617052 0.38329446 -0.098357 0.25966987 0.2604333 -0.02685377 0.07458541 0.38157105 -0.1568889 -0.18606372 -0.28103045 -0.121558085 -0.2566867 0.15117316 0.052412476 -0.016250521 0.13736016 -0.1717386 -0.36340168 -0.399045 0.04616702 -0.076827094 0.0645993 -0.21386874 0.02302241 -0.19856356 0.3870964 0.24708116 0.010273869 0.09252216 0.31544995 -0.13583907 0.10590919 -0.103082426 -0.35583863 0.052510373 0.14786461 0.36254665 0.07212989 -0.38946527 -0.30477107 -0.10019544 0.27375844 -0.2311226 0.18855374 0.08823778 -0.0030840267 0.023303257 0.14020097 0.11500784 0.006526867 -0.063351594 -0.1121158 0.033402696 -0.19277436 0.1744104 -0.13801475 0.306076 -0.28841364 -0.41005865 0.23203263 -0.035601057 -0.111230806 0.20494226 0.29952005 -0.18747479 -0.21828468 -0.13563655 0.08649023 -0.44998533 -0.24989584 0.025448933 0.014284498 0.28128314 -0.2094141 0.5240473 0.21874502 0.29300544 0.1273892 0.033108994
61 -0.06893488 0.25143754 -0.36086655 -0.30521262 0.35475248 -0.1426387 0.63414425 0.13081634 -0.15523134 0.03279404 0.4382509 0.249634 0.31085497 0.07553908 0.2693054 -0.3378628 0.14279781 0.10056387 0.3151383 -0.2447155 -0.049729332 -0.1453273 0.19684516 -0.5684503 -0.123014905 -0.15298393 0.28680208 -0.021579588 -0.15103255 -0.16658022 0.16975963 0.21466777 -0.0051470436 0.3792874 0.27874717 -0.43088543 -0.13436696 -0.17505147 -0.21141231 0.3290071 -0.51272583 -0.16668297 -0.09825154 0.47901005 0.56116784 -0.3619453 -0.38775644 0.18500173 0.007674997 -0.35346362 -0.18688028 -0.046249155 0.001091421 -0.14391126 -0.48165795 -0.47711757 -0.214059 -0.26142472 -0.04415151 -0.009582299 -0.16212618 0.5280258 -0.009407815 0.14135538 0.11967004 0.113642775 0.04024824 0.090333 -0.28790104 -0.6084318 0.1955005 -0.9730535 -0.74434346 -0.3957736 0.44437262 0.19095701 0.6636774 0.23955962 -0.009750883 0.2797565 0.0003294176 -0.27809903 0.16688544 0.42219192 -0.088831306 0.14871958 -0.6042713 -0.42541635 -0.029084636 0.46985856 0.8289529 0.05344369 -0.14410438 0.2716556 -0.14483711 -0.041733038 0.16188753 0.7524866 -0.32908228 -0.48327294 -0.31239188 -0.44141352 0.29604617 0.03158593 -0.09337977 0.49263433 0.23448409 0.023729904 -0.19095473 0.000487033 -0.054128103 -0.31042162 0.21648055 -0.22451054 0.46097407 -0.18190973 0.45040196 0.20445934 0.08837519 0.23956011 0.06645198 0.3918624 -0.20689248 0.10783029 -0.2920251 0.5719147 -0.17607002 0.118028544
452 -0.27907634 0.14583634 0.124961704 -0.0077386694 -0.038586248 0.16079682 0.122301474 -0.055509675 -0.018942004 -0.0073486287 -0.24878342 0.05765918 0.13264939 0.1290709 0.06578976 0.25211152 -0.0033816376 -0.1934936 -0.045166418 -0.26097518 -0.028434323 0.26735094 -0.09720961 0.40875515 0.09581071 -0.08834274 0.17899776 0.41967174 0.3606305 -0.08433647 -0.17514804 0.35260084 -0.33603516 0.05139595 0.24700509 0.1955094 0.21334232 0.11993162 -0.1917516 0.059479922 -0.12700112 0.23751137 0.15781571 0.42948997 -0.29770255 -0.2803984 -0.028329717 -0.34743854 -0.23528056 0.19628575 0.121943526 -0.47541907 -0.30991256 -0.3754712 0.24812755 0.23173723 0.07734631 0.23453864 -0.018086204 -0.37775826 0.19478627 0.030576603 0.0021987832 0.28168443 0.06577206 0.3091745 -0.01934306 -0.0062262784 -0.24486858 -0.6150764 -0.076303065 0.1757992 -0.32486814 0.18065101 -0.4667323 -0.46939924 -0.38142517 0.065323755 0.1775554 -0.0580777 0.5994914 0.16059732 -0.34855703 -0.13204926 -0.04383924 0.22905429 0.2588842 -0.08023252 0.28430837 -0.1713213 -0.21378098 0.04881627 -0.11213521 0.08988705 -0.05809967 0.029345097 -0.119992815 -0.38377258 0.0929515 0.20733903 0.08911761 -0.11330634 -0.14267914 0.018226946 -0.08143041 0.28610018 0.042393252 -0.03743841 0.3012011 0.2915917 -0.5361934 0.0382905 0.13295458 0.08401013 0.07508298 0.107134596 0.014271873 0.018255418 0.23524763 -0.002900181 0.07213985 0.48537952 -0.08457982 0.35693187 0.011628342 -0.11770995 0.2314043 0.15875156
569 -0.14803128 0.38622025 0.015835775 0.12967539 0.020169368 0.17095219 -0.016617019 0.09815259 -0.11892257 0.113704875 0.037040863 -0.08534683 0.05840768 -0.28963783 -0.17158285 0.24928032 -0.062482752 -0.2794278 -0.15513633 -0.2795265 0.40085799 0.14651519 -0.118310966 0.104852915 -0.018106535 -0.09450192 -0.025654884 0.0788022 -0.26216596 0.018269766 -0.0022823187 0.09718641 -0.32654488 -0.0989367 0.5883605 -0.018489428 0.17334622 -0.08050966 -0.013843321 -0.21594326 0.0010167495 0.083605 -0.07854212 0.011476488 -0.3567496 0.015732149 0.45611915 -0.49263576 0.3809462 0.23061287 -0.09039597 -0.38465568 -0.06848077 -0.3539435 -0.13943672 0.039720986 0.02595225 -0.18898657 0.14385018 0.041160602 0.5486056 0.3327216 -0.0022291923 0.15074858 0.32146952 0.0054705194 -0.08466676 0.026457809 0.3863449 -0.0026436397 -0.3372306 0.03138253 -0.05843506 0.04822879 -0.07048445 -0.09246471 0.023112005 -0.012607191 0.013656289 0.032943483 -0.07273923 -0.11705934 -0.02097532 -0.03266238 -0.100213125 0.1377231 -0.098679535 0.3006006 0.0310062 -0.34872937 0.043863334 0.22540109 -0.085000224 -0.14286724 -0.042804435 0.3005528 -0.3363191 -0.24264161 0.05983656 0.10994148 0.11091907 0.006961049 -0.1976052 0.1526348 0.12566894 -0.027378725 0.07561003 0.028840432 -0.08428351 -0.020682437 -0.08050508 0.07699908 -0.3515274 -0.0005787227 -0.31536162 -0.15820341 0.060149185 -0.07980194 0.16022542 -0.2230089 -0.25140512 -0.11807062 -0.3029486 -0.026761176 0.027927 -0.30317736 -0.06591483 0.35217327
